<?xml version="1.0"?>
<opencv_storage>
<cascade>
  <stageType>BOOST</stageType>
  <featureType>LBP</featureType>
  <height>60</height>
  <width>60</width>
  <stageParams>
    <boostType>GAB</boostType>
    <minHitRate>9.9900001287460327e-01</minHitRate>
    <maxFalseAlarm>5.0000000000000000e-01</maxFalseAlarm>
    <weightTrimRate>9.4999999999999996e-01</weightTrimRate>
    <maxDepth>1</maxDepth>
    <maxWeakCount>100</maxWeakCount></stageParams>
  <featureParams>
    <maxCatCount>256</maxCatCount>
    <featSize>1</featSize></featureParams>
  <stageNum>19</stageNum>
  <stages>
    <!-- stage 0 -->
    <_>
      <maxWeakCount>3</maxWeakCount>
      <stageThreshold>-1.0649741888046265e+00</stageThreshold>
      <weakClassifiers>
        <_>
          <internalNodes>
            0 -1 29 -7538436 -682585984 -1876913931 -720039340
            -121059190 -628064120 -116851765 -1060113</internalNodes>
          <leafValues>
            -9.4876325130462646e-01 8.1835204362869263e-01</leafValues></_>
        <_>
          <internalNodes>
            0 -1 59 -69209622 -640581632 1342177832 -581746301
            -918304628 -2012708664 -939293778 -540032273</internalNodes>
          <leafValues>
            -9.1221410036087036e-01 7.6447814702987671e-01</leafValues></_>
        <_>
          <internalNodes>
            0 -1 7 -247399425 -183451520 -804237091 -585526949
            -268373765 -109018879 -1065297457 -996705</internalNodes>
          <leafValues>
            -8.5473310947418213e-01 7.9600310325622559e-01</leafValues></_></weakClassifiers></_>
    <!-- stage 1 -->
    <_>
      <maxWeakCount>3</maxWeakCount>
      <stageThreshold>-1.0295522212982178e+00</stageThreshold>
      <weakClassifiers>
        <_>
          <internalNodes>
            0 -1 46 1078186186 -706772349 -1068416545 -582491651
            -795097937 -785870718 -779106117 -775947553</internalNodes>
          <leafValues>
            -8.7242025136947632e-01 6.4373898506164551e-01</leafValues></_>
        <_>
          <internalNodes>
            0 -1 89 -70257686 184599168 -1852522368 890470561 -123733793
            -2013101429 -1417615713 -134479873</internalNodes>
          <leafValues>
            -8.0279839038848877e-01 7.1465963125228882e-01</leafValues></_>
        <_>
          <internalNodes>
            0 -1 32 -539492614 -572935168 -1069522648 -711638656
            -1718365477 -603946360 -117315397 -258081825</internalNodes>
          <leafValues>
            -8.3849519491195679e-01 6.4566648006439209e-01</leafValues></_></weakClassifiers></_>
    <!-- stage 2 -->
    <_>
      <maxWeakCount>3</maxWeakCount>
      <stageThreshold>-1.0629255771636963e+00</stageThreshold>
      <weakClassifiers>
        <_>
          <internalNodes>
            0 -1 1 -16719873 -36220457 -486485801 -10366217 -687812887
            -83568609 -520049953 -11022337</internalNodes>
          <leafValues>
            -7.7932232618331909e-01 6.6444230079650879e-01</leafValues></_>
        <_>
          <internalNodes>
            0 -1 71 -234884101 -80096630 -1286513789 1428132304
            -70264421 1368115339 1116389887 1401938939</internalNodes>
          <leafValues>
            -8.8847607374191284e-01 5.8426159620285034e-01</leafValues></_>
        <_>
          <internalNodes>
            0 -1 93 -175115286 -641736503 -1056144862 2005766407
            -775163216 1090552833 1900011979 -683148305</internalNodes>
          <leafValues>
            -8.0607527494430542e-01 6.0487288236618042e-01</leafValues></_></weakClassifiers></_>
    <!-- stage 3 -->
    <_>
      <maxWeakCount>5</maxWeakCount>
      <stageThreshold>-1.2358598709106445e+00</stageThreshold>
      <weakClassifiers>
        <_>
          <internalNodes>
            0 -1 62 -72885526 -120732118 1075861568 -798859819
            -628698932 1623638659 -485859425 -134219777</internalNodes>
          <leafValues>
            -8.8481676578521729e-01 5.1807230710983276e-01</leafValues></_>
        <_>
          <internalNodes>
            0 -1 5 -84877345 -685724965 270046623 -144755425 -1603227713
            -123685233 -1608458245 -4456709</internalNodes>
          <leafValues>
            -7.5777328014373779e-01 6.5035694837570190e-01</leafValues></_>
        <_>
          <internalNodes>
            0 -1 31 -620626994 2039209612 1359069248 -170138646
            -951328533 -104789824 -360391953 -548151461</internalNodes>
          <leafValues>
            -8.1488823890686035e-01 5.8812922239303589e-01</leafValues></_>
        <_>
          <internalNodes>
            0 -1 87 -128984882 2076690450 -1992173426 -707307173
            1884521102 -632646970 -1534866517 -867181633</internalNodes>
          <leafValues>
            -7.9294222593307495e-01 5.9145718812942505e-01</leafValues></_>
        <_>
          <internalNodes>
            0 -1 50 -1068511030 -716201465 151195987 -540293865
            1103336687 -477623649 -2097030197 -812656193</internalNodes>
          <leafValues>
            -7.4976539611816406e-01 6.1167156696319580e-01</leafValues></_></weakClassifiers></_>
    <!-- stage 4 -->
    <_>
      <maxWeakCount>5</maxWeakCount>
      <stageThreshold>-1.2317228317260742e+00</stageThreshold>
      <weakClassifiers>
        <_>
          <internalNodes>
            0 -1 27 -34541057 -214664011 -651125825 -5216871 -1663238209
            -81687973 -661091589 -33707809</internalNodes>
          <leafValues>
            -7.5503063201904297e-01 6.2724691629409790e-01</leafValues></_>
        <_>
          <internalNodes>
            0 -1 54 1095233610 -178269749 -785389829 -674246077
            -1027147154 -356805990 -423896337 -774911025</internalNodes>
          <leafValues>
            -8.2416689395904541e-01 5.0168365240097046e-01</leafValues></_>
        <_>
          <internalNodes>
            0 -1 45 -1046 -101726279 -780055538 -236997927 -1433761333
            -1072791413 -168189793 1365244591</internalNodes>
          <leafValues>
            -8.6920315027236938e-01 4.4749596714973450e-01</leafValues></_>
        <_>
          <internalNodes>
            0 -1 18 325047671 1565102103 -641625641 285284628
            -1516705052 -68841016 428854315 453871643</internalNodes>
          <leafValues>
            -7.3824769258499146e-01 6.0229265689849854e-01</leafValues></_>
        <_>
          <internalNodes>
            0 -1 69 -249315110 -673476449 -1005660209 -695792809
            -930127121 -92043121 -1048108405 -3318833</internalNodes>
          <leafValues>
            -6.6665661334991455e-01 6.3822638988494873e-01</leafValues></_></weakClassifiers></_>
    <!-- stage 5 -->
    <_>
      <maxWeakCount>5</maxWeakCount>
      <stageThreshold>-1.2164676189422607e+00</stageThreshold>
      <weakClassifiers>
        <_>
          <internalNodes>
            0 -1 73 -1 -131076 -2125901825 -33685665 -69402626 -10965252
            -276192549 -1</internalNodes>
          <leafValues>
            -5.6790989637374878e-01 7.7920413017272949e-01</leafValues></_>
        <_>
          <internalNodes>
            0 -1 60 -142608690 778949255 1889564362 1892383227
            -657329474 329236746 -753165313 2011166651</internalNodes>
          <leafValues>
            -8.7624198198318481e-01 4.8228567838668823e-01</leafValues></_>
        <_>
          <internalNodes>
            0 -1 11 -25112322 -14624717 1728978271 -13510209 -165492481
            -805238646 -24586069 -72630050</internalNodes>
          <leafValues>
            -7.9959905147552490e-01 4.6569594740867615e-01</leafValues></_>
        <_>
          <internalNodes>
            0 -1 67 -1051926 -773222046 268521538 -1289763883 -777174513
            -2010418168 -1010722957 -202378501</internalNodes>
          <leafValues>
            -7.8034472465515137e-01 5.2588313817977905e-01</leafValues></_>
        <_>
          <internalNodes>
            0 -1 30 -606210054 1506265426 -1860842416 2143412701
            -1583371814 -283360886 -1092512774 -144576881</internalNodes>
          <leafValues>
            -7.6389479637145996e-01 5.4908603429794312e-01</leafValues></_></weakClassifiers></_>
    <!-- stage 6 -->
    <_>
      <maxWeakCount>5</maxWeakCount>
      <stageThreshold>-1.2151062488555908e+00</stageThreshold>
      <weakClassifiers>
        <_>
          <internalNodes>
            0 -1 83 -82512130 -1761578904 -159366628 -35794820
            -518328885 -1196892032 -829452081 -3585</internalNodes>
          <leafValues>
            -7.6653695106506348e-01 5.0170648097991943e-01</leafValues></_>
        <_>
          <internalNodes>
            0 -1 44 -652738562 -207636495 -1553196160 -648678909
            -392556357 -61333368 -1733653 -715785285</internalNodes>
          <leafValues>
            -7.8252303600311279e-01 4.7799658775329590e-01</leafValues></_>
        <_>
          <internalNodes>
            0 -1 90 -8388610 -72647282 -980889564 -577866324 -774702642
            -645683071 -967125515 -707280193</internalNodes>
          <leafValues>
            -6.7844438552856445e-01 5.2582383155822754e-01</leafValues></_>
        <_>
          <internalNodes>
            0 -1 14 -1958608769 -15790960 -670000709 -228912 176330943
            -1114963959 -129185297 -21966895</internalNodes>
          <leafValues>
            -6.7457705736160278e-01 5.7646656036376953e-01</leafValues></_>
        <_>
          <internalNodes>
            0 -1 85 1210040526 1526972427 251027 1460525467 2014034415
            -275666671 -129919301 -71574789</internalNodes>
          <leafValues>
            -7.6833671331405640e-01 5.1811414957046509e-01</leafValues></_></weakClassifiers></_>
    <!-- stage 7 -->
    <_>
      <maxWeakCount>5</maxWeakCount>
      <stageThreshold>-1.2854467630386353e+00</stageThreshold>
      <weakClassifiers>
        <_>
          <internalNodes>
            0 -1 75 -802033517 -178814721 1284180355 -548421365
            -800547129 -878016506 -838087701 -50352929</internalNodes>
          <leafValues>
            -6.2540191411972046e-01 6.0460251569747925e-01</leafValues></_>
        <_>
          <internalNodes>
            0 -1 41 -4201766 -8416118 1437066176 -181292559 -886326641
            -569403256 -1521055103 1431830483</internalNodes>
          <leafValues>
            -8.1403416395187378e-01 4.4902828335762024e-01</leafValues></_>
        <_>
          <internalNodes>
            0 -1 25 836227327 -623554446 1641060735 -265235723
            1249938111 -89510662 -24581201 -91193351</internalNodes>
          <leafValues>
            -7.5430303812026978e-01 4.8094445466995239e-01</leafValues></_>
        <_>
          <internalNodes>
            0 -1 91 -112234078 -414645948 25743501 -715939435 -515128582
            1073973632 -257959430 -680016917</internalNodes>
          <leafValues>
            -7.1223455667495728e-01 5.2127331495285034e-01</leafValues></_>
        <_>
          <internalNodes>
            0 -1 57 -216380690 1348715014 282607852 -753839849 361992650
            -134214974 1172142287 -176696321</internalNodes>
          <leafValues>
            -8.6936086416244507e-01 3.9052248001098633e-01</leafValues></_></weakClassifiers></_>
    <!-- stage 8 -->
    <_>
      <maxWeakCount>5</maxWeakCount>
      <stageThreshold>-1.5090847015380859e+00</stageThreshold>
      <weakClassifiers>
        <_>
          <internalNodes>
            0 -1 24 -213657633 -552058356 -711815169 -241283 327346078
            -107705960 -606413873 -1162325580</internalNodes>
          <leafValues>
            -8.3682984113693237e-01 3.8599106669425964e-01</leafValues></_>
        <_>
          <internalNodes>
            0 -1 70 1369158107 -3591294 530773979 1464419091 -1158682385
            -116532801 311538339 1468991403</internalNodes>
          <leafValues>
            -8.2388508319854736e-01 3.8585934042930603e-01</leafValues></_>
        <_>
          <internalNodes>
            0 -1 43 1359737026 1448339839 1535625503 -943725025
            1097574839 -124165989 1092343547 -741352597</internalNodes>
          <leafValues>
            -7.8026396036148071e-01 3.9590266346931458e-01</leafValues></_>
        <_>
          <internalNodes>
            0 -1 12 10089843 -1626135787 -1718498881 1393938777 178596
            500803977 345544863 325016463</internalNodes>
          <leafValues>
            -7.3285579681396484e-01 4.5188757777214050e-01</leafValues></_>
        <_>
          <internalNodes>
            0 -1 21 -746341718 -680423358 -1827432807 1702593571
            977709311 -74742654 1394329995 1398514207</internalNodes>
          <leafValues>
            -7.5647509098052979e-01 4.8000660538673401e-01</leafValues></_></weakClassifiers></_>
    <!-- stage 9 -->
    <_>
      <maxWeakCount>5</maxWeakCount>
      <stageThreshold>-1.2007894515991211e+00</stageThreshold>
      <weakClassifiers>
        <_>
          <internalNodes>
            0 -1 68 -754715901 -8440073 -142606337 -46154753 -17 -1 -1
            -4194305</internalNodes>
          <leafValues>
            -5.7822084426879883e-01 6.1830359697341919e-01</leafValues></_>
        <_>
          <internalNodes>
            0 -1 10 358597855 -52538114 -720915491 -46026175 -1163163393
            -1207908113 -21236339 -263141285</internalNodes>
          <leafValues>
            -6.8224275112152100e-01 4.8183640837669373e-01</leafValues></_>
        <_>
          <internalNodes>
            0 -1 56 -277879826 -834169906 1377976350 -260901333
            -379878801 -1001705471 335536947 -1000867905</internalNodes>
          <leafValues>
            -7.7683871984481812e-01 4.1646936535835266e-01</leafValues></_>
        <_>
          <internalNodes>
            0 -1 94 -609363478 -4484979 1906951840 -213430120 1929440224
            1367408640 -675052555 -415895050</internalNodes>
          <leafValues>
            -7.7877515554428101e-01 4.3182832002639771e-01</leafValues></_>
        <_>
          <internalNodes>
            0 -1 20 -124460077 -1236085805 302648201 2031243863
            -988577379 -855037950 19469006 34143480</internalNodes>
          <leafValues>
            -7.4531555175781250e-01 4.3786039948463440e-01</leafValues></_></weakClassifiers></_>
    <!-- stage 10 -->
    <_>
      <maxWeakCount>6</maxWeakCount>
      <stageThreshold>-9.0820109844207764e-01</stageThreshold>
      <weakClassifiers>
        <_>
          <internalNodes>
            0 -1 3 -16716289 -301119 -914189667 -2685689 -2029998898
            -1147994064 -111089237 -13530481</internalNodes>
          <leafValues>
            -7.1542286872863770e-01 4.3430963158607483e-01</leafValues></_>
        <_>
          <internalNodes>
            0 -1 22 -872121089 -12340417 2658335 16963973 350983359
            -14699598 1101134271 657719215</internalNodes>
          <leafValues>
            -7.2482913732528687e-01 4.2364066839218140e-01</leafValues></_>
        <_>
          <internalNodes>
            0 -1 86 -733261746 2136676366 -1072580919 1498627985
            1413730540 2002387208 -200557586 -599565445</internalNodes>
          <leafValues>
            -7.9933381080627441e-01 3.6562567949295044e-01</leafValues></_>
        <_>
          <internalNodes>
            0 -1 63 2043671278 -910099602 -795586494 -166202987
            -1763605745 1117495305 -1114507801 2142239483</internalNodes>
          <leafValues>
            -8.6165243387222290e-01 3.7154164910316467e-01</leafValues></_>
        <_>
          <internalNodes>
            0 -1 98 -973485571 1364570561 -2147286579 -1656491005
            -624745585 -1439709269 -1073501928 353090379</internalNodes>
          <leafValues>
            -5.8007210493087769e-01 5.9042656421661377e-01</leafValues></_>
        <_>
          <internalNodes>
            0 -1 34 -1955531267 495501713 -1928817187 -746038984
            -87240801 -1079101278 -1949433441 -352391139</internalNodes>
          <leafValues>
            -6.9005250930786133e-01 4.8617398738861084e-01</leafValues></_></weakClassifiers></_>
    <!-- stage 11 -->
    <_>
      <maxWeakCount>6</maxWeakCount>
      <stageThreshold>-1.0571991205215454e+00</stageThreshold>
      <weakClassifiers>
        <_>
          <internalNodes>
            0 -1 40 2013263342 -36230862 866078944 -246427629 -907551025
            -2008309503 -243273291 -187696129</internalNodes>
          <leafValues>
            -7.5000000000000000e-01 3.8281250000000000e-01</leafValues></_>
        <_>
          <internalNodes>
            0 -1 65 1594086146 -134512142 -991477625 -673335485
            -829690385 -274001717 -2130323297 2000112983</internalNodes>
          <leafValues>
            -8.5731351375579834e-01 3.2144105434417725e-01</leafValues></_>
        <_>
          <internalNodes>
            0 -1 0 193446143 2069090313 85014334 1465766359 95102111
            821702771 -1407980097 938959085</internalNodes>
          <leafValues>
            -7.1257805824279785e-01 4.0070441365242004e-01</leafValues></_>
        <_>
          <internalNodes>
            0 -1 79 1935104120 -686239568 153166981 -381564963
            -1088257094 1042081982 -538766452 -269498108</internalNodes>
          <leafValues>
            -6.7159610986709595e-01 4.7017481923103333e-01</leafValues></_>
        <_>
          <internalNodes>
            0 -1 28 -1808543073 -201322430 1327059549 1879093461
            -1730499908 -127268694 -1131088646 -62878785</internalNodes>
          <leafValues>
            -7.1783977746963501e-01 4.8113557696342468e-01</leafValues></_>
        <_>
          <internalNodes>
            0 -1 96 -618687404 219906058 890277140 -1175374986
            -622597458 682607287 1506596960 -1779714580</internalNodes>
          <leafValues>
            -7.6016068458557129e-01 3.9707493782043457e-01</leafValues></_></weakClassifiers></_>
    <!-- stage 12 -->
    <_>
      <maxWeakCount>6</maxWeakCount>
      <stageThreshold>-9.5088171958923340e-01</stageThreshold>
      <weakClassifiers>
        <_>
          <internalNodes>
            0 -1 78 -237669387 -613375172 536953233 -83163835 -413353540
            -247628 1842121631 -1073799713</internalNodes>
          <leafValues>
            -5.7200974225997925e-01 5.1802265644073486e-01</leafValues></_>
        <_>
          <internalNodes>
            0 -1 42 -285226257 -294840797 210219107 -210026239 -5785469
            1200339914 -152326203 2010840991</internalNodes>
          <leafValues>
            -7.6210784912109375e-01 3.7679973244667053e-01</leafValues></_>
        <_>
          <internalNodes>
            0 -1 13 -10420269 -575537065 -158527141 -541097945
            -132120417 -559284019 -459240497 -491217</internalNodes>
          <leafValues>
            -7.3792999982833862e-01 3.8236254453659058e-01</leafValues></_>
        <_>
          <internalNodes>
            0 -1 49 1931433578 -2068620510 55034498 -947933261 -82841565
            353268230 1636422583 -675547653</internalNodes>
          <leafValues>
            -7.8956645727157593e-01 3.7557202577590942e-01</leafValues></_>
        <_>
          <internalNodes>
            0 -1 2 2097341679 -49594173 1124407063 1433894943 2063691952
            1412145423 2063843883 1896049839</internalNodes>
          <leafValues>
            -6.4820092916488647e-01 4.8053663969039917e-01</leafValues></_>
        <_>
          <internalNodes>
            0 -1 19 1395129016 1397126411 -1722261496 1742324696
            -1515206257 285835524 -757298501 1369287595</internalNodes>
          <leafValues>
            -7.8012925386428833e-01 3.7111034989356995e-01</leafValues></_></weakClassifiers></_>
    <!-- stage 13 -->
    <_>
      <maxWeakCount>6</maxWeakCount>
      <stageThreshold>-9.7520053386688232e-01</stageThreshold>
      <weakClassifiers>
        <_>
          <internalNodes>
            0 -1 33 1397744334 -167819705 -281292929 -59260849 118991706
            -105327339 399232139 -1678794101</internalNodes>
          <leafValues>
            -6.8818271160125732e-01 4.1324391961097717e-01</leafValues></_>
        <_>
          <internalNodes>
            0 -1 48 -241224997 -73414226 545719827 -574936853 -358637666
            -1973482998 -337665965 -797708523</internalNodes>
          <leafValues>
            -5.5491805076599121e-01 5.0603055953979492e-01</leafValues></_>
        <_>
          <internalNodes>
            0 -1 15 1459935703 -1177201313 1538413471 824044663
            421773192 -1398579136 1468060127 1129304771</internalNodes>
          <leafValues>
            -6.6511720418930054e-01 4.3323409557342529e-01</leafValues></_>
        <_>
          <internalNodes>
            0 -1 92 2002507586 1607721423 -670870943 1096134739
            1938494338 1966206035 1938548971 1669327835</internalNodes>
          <leafValues>
            -7.4126082658767700e-01 4.2115560173988342e-01</leafValues></_>
        <_>
          <internalNodes>
            0 -1 4 -827856642 -1119674337 771952469 2122913202
            1342193856 2092302605 814026135 2140889733</internalNodes>
          <leafValues>
            -7.9998666048049927e-01 3.2940039038658142e-01</leafValues></_>
        <_>
          <internalNodes>
            0 -1 66 -707738702 -623926888 -1006116902 1640972994
            -860626197 -601126884 -976295173 1398527111</internalNodes>
          <leafValues>
            -7.8646165132522583e-01 3.6419561505317688e-01</leafValues></_></weakClassifiers></_>
    <!-- stage 14 -->
    <_>
      <maxWeakCount>7</maxWeakCount>
      <stageThreshold>-2.0684511661529541e+00</stageThreshold>
      <weakClassifiers>
        <_>
          <internalNodes>
            0 -1 38 -15238703 -1751252928 -184494191 -283411433
            -1424273392 -1152696304 -1302876048 -75505581</internalNodes>
          <leafValues>
            -5.8497011661529541e-01 4.7133138775825500e-01</leafValues></_>
        <_>
          <internalNodes>
            0 -1 64 -956084030 -573613350 -848368417 -570467582
            168417455 -1040256853 1086742763 -1016597385</internalNodes>
          <leafValues>
            -6.9573307037353516e-01 4.0822711586952209e-01</leafValues></_>
        <_>
          <internalNodes>
            0 -1 84 51551227 -545324840 -855073999 -1143798000
            1608757179 -71626029 -784666235 -36979203</internalNodes>
          <leafValues>
            -4.8285815119743347e-01 6.2150788307189941e-01</leafValues></_>
        <_>
          <internalNodes>
            0 -1 17 -1205895969 -16011001 270317919 135172424 964400863
            -1458961239 -400126981 -343736454</internalNodes>
          <leafValues>
            -5.6326436996459961e-01 5.2247804403305054e-01</leafValues></_>
        <_>
          <internalNodes>
            0 -1 8 -620242226 -1212973021 -2138959766 1846223307
            860407738 1803587762 1938530958 -15495477</internalNodes>
          <leafValues>
            -5.7267439365386963e-01 5.5331605672836304e-01</leafValues></_>
        <_>
          <internalNodes>
            0 -1 58 -985153278 -170712267 285367573 -511987071
            -777463303 -118471998 1120240113 -1141780221</internalNodes>
          <leafValues>
            -6.5949624776840210e-01 4.4932186603546143e-01</leafValues></_>
        <_>
          <internalNodes>
            0 -1 82 1641009258 2072482176 -1400366582 1057182603
            -796457996 -204930902 715649419 227540695</internalNodes>
          <leafValues>
            -8.1403309106826782e-01 3.8617914915084839e-01</leafValues></_></weakClassifiers></_>
    <!-- stage 15 -->
    <_>
      <maxWeakCount>7</maxWeakCount>
      <stageThreshold>-9.0608936548233032e-01</stageThreshold>
      <weakClassifiers>
        <_>
          <internalNodes>
            0 -1 76 -632334625 -762608502 -1919758981 -399778656
            176276731 -890090821 -1073705793 -829563459</internalNodes>
          <leafValues>
            -5.5263155698776245e-01 4.7967478632926941e-01</leafValues></_>
        <_>
          <internalNodes>
            0 -1 52 -837762 -92299240 1519075600 -12910501 -355589364
            1784058024 -154944873 -1066140813</internalNodes>
          <leafValues>
            -5.7946407794952393e-01 4.6311926841735840e-01</leafValues></_>
        <_>
          <internalNodes>
            0 -1 88 -651842994 1935693140 -1660450144 -148426831
            847635295 -1071595104 -187707679 -747111075</internalNodes>
          <leafValues>
            -7.5025153160095215e-01 3.6799982190132141e-01</leafValues></_>
        <_>
          <internalNodes>
            0 -1 53 -799551030 1975776079 -754894061 -147892391
            -654054469 -364359424 1342407631 -976502366</internalNodes>
          <leafValues>
            -5.6098973751068115e-01 4.8485457897186279e-01</leafValues></_>
        <_>
          <internalNodes>
            0 -1 6 -15344213 -551661605 -4739073 -881766929 -483748757
            229067870 -1665404993 1529597931</internalNodes>
          <leafValues>
            -5.0681394338607788e-01 6.0206824541091919e-01</leafValues></_>
        <_>
          <internalNodes>
            0 -1 26 -1822474145 -246207343 -935227373 -165603151
            345508043 -90679108 -393430305 -90133839</internalNodes>
          <leafValues>
            -6.4169609546661377e-01 4.8462846875190735e-01</leafValues></_>
        <_>
          <internalNodes>
            0 -1 39 -285227825 1609977599 -17573675 1106788607
            -537132938 -1075916730 1465053436 -1353714434</internalNodes>
          <leafValues>
            -5.1064443588256836e-01 5.8472472429275513e-01</leafValues></_></weakClassifiers></_>
    <!-- stage 16 -->
    <_>
      <maxWeakCount>6</maxWeakCount>
      <stageThreshold>-9.4218719005584717e-01</stageThreshold>
      <weakClassifiers>
        <_>
          <internalNodes>
            0 -1 77 -35793985 531741419 -641480201 2043402299 1497975976
            195578870 2144997947 2145352605</internalNodes>
          <leafValues>
            -6.8969184160232544e-01 3.5663226246833801e-01</leafValues></_>
        <_>
          <internalNodes>
            0 -1 36 -816845314 -109486248 -854050958 -38522606
            -140688753 -4438982 980107567 -277479685</internalNodes>
          <leafValues>
            -6.8532001972198486e-01 3.7130692601203918e-01</leafValues></_>
        <_>
          <internalNodes>
            0 -1 81 1519547253 -1694326446 975203805 -218093648
            -1509299590 -1714519776 2113715099 -570448643</internalNodes>
          <leafValues>
            -5.6671941280364990e-01 4.6943044662475586e-01</leafValues></_>
        <_>
          <internalNodes>
            0 -1 16 157371215 -683577012 1359513042 -1612902307 39915704
            2028601513 220989243 457134875</internalNodes>
          <leafValues>
            -7.0821875333786011e-01 4.1036236286163330e-01</leafValues></_>
        <_>
          <internalNodes>
            0 -1 35 -614729526 -875891256 1130709777 -470311953
            -667517025 -964148829 -189165543 1431289407</internalNodes>
          <leafValues>
            -7.4646830558776855e-01 3.7372541427612305e-01</leafValues></_>
        <_>
          <internalNodes>
            0 -1 37 -588365602 -83390100 -1039401340 -598884008
            -1460808593 -1148026258 -770979638 -394073586</internalNodes>
          <leafValues>
            -6.8486970663070679e-01 4.0198862552642822e-01</leafValues></_></weakClassifiers></_>
    <!-- stage 17 -->
    <_>
      <maxWeakCount>7</maxWeakCount>
      <stageThreshold>-1.0013473033905029e+00</stageThreshold>
      <weakClassifiers>
        <_>
          <internalNodes>
            0 -1 23 1930157407 -545259585 -262210 -140640385 -524550404
            -604178569 -101059083 -771754497</internalNodes>
          <leafValues>
            -4.6694797277450562e-01 5.9640103578567505e-01</leafValues></_>
        <_>
          <internalNodes>
            0 -1 80 -629779233 2057985979 -22028301 1874591726
            -1901400323 -391450886 -530389343 -841748997</internalNodes>
          <leafValues>
            -4.8330906033515930e-01 5.3026050329208374e-01</leafValues></_>
        <_>
          <internalNodes>
            0 -1 51 -293187458 1561264471 -2145755233 1217131294
            -1932068100 -1107564159 -489965157 173011422</internalNodes>
          <leafValues>
            -7.2984856367111206e-01 3.6806508898735046e-01</leafValues></_>
        <_>
          <internalNodes>
            0 -1 47 -724573184 -174333571 -819729429 -437922849
            -1059198473 -1683308297 -1521635446 -1511543901</internalNodes>
          <leafValues>
            -6.2222182750701904e-01 4.1877847909927368e-01</leafValues></_>
        <_>
          <internalNodes>
            0 -1 100 -585105475 1282403822 -35686993 -1200635905
            1187981409 -1932870357 -171979543 -1060146225</internalNodes>
          <leafValues>
            -4.8528945446014404e-01 5.8483678102493286e-01</leafValues></_>
        <_>
          <internalNodes>
            0 -1 99 -35540527 -1772551280 43104449 -2137673071
            -1061341860 104555667 1688656115 -1331523391</internalNodes>
          <leafValues>
            -5.7535058259963989e-01 4.9266761541366577e-01</leafValues></_>
        <_>
          <internalNodes>
            0 -1 72 -485012994 -1048476268 -1693448828 -1660464893
            -639886104 462002340 1800817625 1509125023</internalNodes>
          <leafValues>
            -7.8331661224365234e-01 3.8573744893074036e-01</leafValues></_></weakClassifiers></_>
    <!-- stage 18 -->
    <_>
      <maxWeakCount>6</maxWeakCount>
      <stageThreshold>-8.6330062150955200e-01</stageThreshold>
      <weakClassifiers>
        <_>
          <internalNodes>
            0 -1 97 1271637634 1733269203 -1481073808 938853316
            135199678 1511627607 -826283368 -671761765</internalNodes>
          <leafValues>
            -7.0748299360275269e-01 3.2169952988624573e-01</leafValues></_>
        <_>
          <internalNodes>
            0 -1 95 1766843970 2001206214 -422584454 1934093894
            1461318626 1648476928 -669255030 -446237985</internalNodes>
          <leafValues>
            -6.7694187164306641e-01 3.5082495212554932e-01</leafValues></_>
        <_>
          <internalNodes>
            0 -1 9 722468586 682602701 608125322 1533002219 170850434
            730955843 1065348586 -78136337</internalNodes>
          <leafValues>
            -5.9488427639007568e-01 4.4375717639923096e-01</leafValues></_>
        <_>
          <internalNodes>
            0 -1 55 -997210878 -586054361 -176092409 -37630073
            -1522042427 -612351440 -385765374 -997842517</internalNodes>
          <leafValues>
            -6.6522663831710815e-01 4.1561561822891235e-01</leafValues></_>
        <_>
          <internalNodes>
            0 -1 61 1896272842 -215583798 1256316107 288297731
            2056101610 -893710292 -389609293 1529337806</internalNodes>
          <leafValues>
            -7.5261235237121582e-01 3.8805645704269409e-01</leafValues></_>
        <_>
          <internalNodes>
            0 -1 74 290848507 -770571261 -1919908003 -1023033087
            1528584600 245041826 2142130095 -88544353</internalNodes>
          <leafValues>
            -5.6174325942993164e-01 4.9579963088035583e-01</leafValues></_></weakClassifiers></_></stages>
  <features>
    <_>
      <rect>
        0 3 15 12</rect></_>
    <_>
      <rect>
        0 10 11 12</rect></_>
    <_>
      <rect>
        1 4 17 12</rect></_>
    <_>
      <rect>
        1 10 11 11</rect></_>
    <_>
      <rect>
        1 13 11 5</rect></_>
    <_>
      <rect>
        2 14 14 10</rect></_>
    <_>
      <rect>
        4 3 17 12</rect></_>
    <_>
      <rect>
        5 14 12 10</rect></_>
    <_>
      <rect>
        5 17 6 7</rect></_>
    <_>
      <rect>
        6 15 6 8</rect></_>
    <_>
      <rect>
        6 25 12 5</rect></_>
    <_>
      <rect>
        7 13 14 8</rect></_>
    <_>
      <rect>
        7 33 16 7</rect></_>
    <_>
      <rect>
        9 12 10 11</rect></_>
    <_>
      <rect>
        9 21 13 7</rect></_>
    <_>
      <rect>
        9 33 15 6</rect></_>
    <_>
      <rect>
        9 34 12 7</rect></_>
    <_>
      <rect>
        10 23 13 4</rect></_>
    <_>
      <rect>
        11 32 15 8</rect></_>
    <_>
      <rect>
        13 22 5 4</rect></_>
    <_>
      <rect>
        14 3 13 7</rect></_>
    <_>
      <rect>
        14 18 5 5</rect></_>
    <_>
      <rect>
        14 21 11 5</rect></_>
    <_>
      <rect>
        15 15 3 8</rect></_>
    <_>
      <rect>
        15 24 10 7</rect></_>
    <_>
      <rect>
        15 29 8 4</rect></_>
    <_>
      <rect>
        15 30 8 3</rect></_>
    <_>
      <rect>
        16 17 10 9</rect></_>
    <_>
      <rect>
        16 29 7 3</rect></_>
    <_>
      <rect>
        17 13 11 11</rect></_>
    <_>
      <rect>
        17 19 4 8</rect></_>
    <_>
      <rect>
        18 19 4 6</rect></_>
    <_>
      <rect>
        18 22 4 6</rect></_>
    <_>
      <rect>
        19 9 4 9</rect></_>
    <_>
      <rect>
        19 14 7 12</rect></_>
    <_>
      <rect>
        19 17 3 7</rect></_>
    <_>
      <rect>
        19 19 4 9</rect></_>
    <_>
      <rect>
        20 21 9 4</rect></_>
    <_>
      <rect>
        20 25 6 3</rect></_>
    <_>
      <rect>
        20 25 6 4</rect></_>
    <_>
      <rect>
        20 28 3 2</rect></_>
    <_>
      <rect>
        22 22 3 5</rect></_>
    <_>
      <rect>
        22 27 4 2</rect></_>
    <_>
      <rect>
        23 13 3 8</rect></_>
    <_>
      <rect>
        23 21 3 7</rect></_>
    <_>
      <rect>
        23 26 3 3</rect></_>
    <_>
      <rect>
        24 14 3 7</rect></_>
    <_>
      <rect>
        24 16 2 5</rect></_>
    <_>
      <rect>
        24 23 2 5</rect></_>
    <_>
      <rect>
        24 25 4 3</rect></_>
    <_>
      <rect>
        25 17 3 5</rect></_>
    <_>
      <rect>
        25 19 6 5</rect></_>
    <_>
      <rect>
        25 21 2 6</rect></_>
    <_>
      <rect>
        26 5 2 11</rect></_>
    <_>
      <rect>
        26 11 3 9</rect></_>
    <_>
      <rect>
        26 14 2 6</rect></_>
    <_>
      <rect>
        26 26 2 3</rect></_>
    <_>
      <rect>
        26 28 3 3</rect></_>
    <_>
      <rect>
        27 14 2 6</rect></_>
    <_>
      <rect>
        27 24 3 4</rect></_>
    <_>
      <rect>
        27 27 2 2</rect></_>
    <_>
      <rect>
        28 21 3 5</rect></_>
    <_>
      <rect>
        28 25 2 4</rect></_>
    <_>
      <rect>
        28 27 2 2</rect></_>
    <_>
      <rect>
        29 20 2 3</rect></_>
    <_>
      <rect>
        29 20 2 4</rect></_>
    <_>
      <rect>
        29 23 3 3</rect></_>
    <_>
      <rect>
        29 27 2 2</rect></_>
    <_>
      <rect>
        30 13 2 7</rect></_>
    <_>
      <rect>
        30 17 3 5</rect></_>
    <_>
      <rect>
        30 21 3 5</rect></_>
    <_>
      <rect>
        30 25 3 3</rect></_>
    <_>
      <rect>
        30 26 2 4</rect></_>
    <_>
      <rect>
        30 26 3 6</rect></_>
    <_>
      <rect>
        30 30 2 3</rect></_>
    <_>
      <rect>
        31 14 2 6</rect></_>
    <_>
      <rect>
        31 25 5 3</rect></_>
    <_>
      <rect>
        31 28 2 3</rect></_>
    <_>
      <rect>
        31 28 2 6</rect></_>
    <_>
      <rect>
        31 31 3 3</rect></_>
    <_>
      <rect>
        32 22 5 4</rect></_>
    <_>
      <rect>
        32 27 5 4</rect></_>
    <_>
      <rect>
        33 23 2 4</rect></_>
    <_>
      <rect>
        33 27 2 5</rect></_>
    <_>
      <rect>
        33 29 6 3</rect></_>
    <_>
      <rect>
        34 17 2 5</rect></_>
    <_>
      <rect>
        34 20 2 4</rect></_>
    <_>
      <rect>
        34 21 2 4</rect></_>
    <_>
      <rect>
        34 22 3 5</rect></_>
    <_>
      <rect>
        34 28 2 3</rect></_>
    <_>
      <rect>
        35 27 2 4</rect></_>
    <_>
      <rect>
        36 21 2 5</rect></_>
    <_>
      <rect>
        36 23 2 3</rect></_>
    <_>
      <rect>
        36 24 2 4</rect></_>
    <_>
      <rect>
        36 28 2 2</rect></_>
    <_>
      <rect>
        37 22 2 4</rect></_>
    <_>
      <rect>
        37 24 5 6</rect></_>
    <_>
      <rect>
        38 22 3 5</rect></_>
    <_>
      <rect>
        39 23 7 8</rect></_>
    <_>
      <rect>
        41 10 4 9</rect></_>
    <_>
      <rect>
        42 26 5 5</rect></_></features></cascade>
</opencv_storage>
