<?xml version="1.0"?>
<opencv_storage>
<cascade>
  <stageType>BOOST</stageType>
  <featureType>LBP</featureType>
  <height>42</height>
  <width>58</width>
  <stageParams>
    <boostType>GAB</boostType>
    <minHitRate>9.9900001287460327e-01</minHitRate>
    <maxFalseAlarm>5.0000000000000000e-01</maxFalseAlarm>
    <weightTrimRate>9.4999999999999996e-01</weightTrimRate>
    <maxDepth>1</maxDepth>
    <maxWeakCount>100</maxWeakCount></stageParams>
  <featureParams>
    <maxCatCount>256</maxCatCount>
    <featSize>1</featSize></featureParams>
  <stageNum>11</stageNum>
  <stages>
    <!-- stage 0 -->
    <_>
      <maxWeakCount>3</maxWeakCount>
      <stageThreshold>-9.4948488473892212e-01</stageThreshold>
      <weakClassifiers>
        <_>
          <internalNodes>
            0 -1 25 1427175636 -71204671 -645888818 -586874873
            -1593726230 -109018936 -1744647474 2143930520</internalNodes>
          <leafValues>
            -8.4784603118896484e-01 6.5374213457107544e-01</leafValues></_>
        <_>
          <internalNodes>
            0 -1 23 -179176450 -586084208 20575 -753807335 -1987935588
            -922214240 83947706 1493794922</internalNodes>
          <leafValues>
            -7.1224480867385864e-01 6.8901932239532471e-01</leafValues></_>
        <_>
          <internalNodes>
            0 -1 73 1900074224 -184450608 -798895649 -587181923
            -360537912 -74940416 -2130655092 218677960</internalNodes>
          <leafValues>
            -7.9065823554992676e-01 6.2625366449356079e-01</leafValues></_></weakClassifiers></_>
    <!-- stage 1 -->
    <_>
      <maxWeakCount>6</maxWeakCount>
      <stageThreshold>-1.5286771059036255e+00</stageThreshold>
      <weakClassifiers>
        <_>
          <internalNodes>
            0 -1 51 1349816533 -782789631 -1291799827 -15609399
            -981430034 -888629112 -121050678 2064239320</internalNodes>
          <leafValues>
            -7.2613304853439331e-01 4.7549441456794739e-01</leafValues></_>
        <_>
          <internalNodes>
            0 -1 78 830473392 -82988647 1497952538 -44969653 -259077444
            -618012528 -493061379 2140793854</internalNodes>
          <leafValues>
            -7.6136064529418945e-01 3.4138274192810059e-01</leafValues></_>
        <_>
          <internalNodes>
            0 -1 4 324047560 -683667052 -804187570 1896923396
            -1473667636 -351270904 -1987536722 2054023498</internalNodes>
          <leafValues>
            -7.8959572315216064e-01 2.4558562040328979e-01</leafValues></_>
        <_>
          <internalNodes>
            0 -1 43 973604884 -1643408936 -536816364 1260111937
            -1056773826 -100052608 -527765254 -611532068</internalNodes>
          <leafValues>
            -5.4800164699554443e-01 3.7263655662536621e-01</leafValues></_>
        <_>
          <internalNodes>
            0 -1 62 -780019498 1234256157 5374200 -208727283 352895116
            524320768 -922448680 1209268907</internalNodes>
          <leafValues>
            -6.4134055376052856e-01 3.8344040513038635e-01</leafValues></_>
        <_>
          <internalNodes>
            0 -1 37 1882247264 -35161476 -1229000707 -108400961
            1860012552 -1140861216 257089279 -1106813186</internalNodes>
          <leafValues>
            -2.9905423521995544e-01 6.5540659427642822e-01</leafValues></_></weakClassifiers></_>
    <!-- stage 2 -->
    <_>
      <maxWeakCount>4</maxWeakCount>
      <stageThreshold>-1.0561354160308838e+00</stageThreshold>
      <weakClassifiers>
        <_>
          <internalNodes>
            0 -1 46 -289 -537567366 -1300234273 -527301 -25233665
            -1380562 -636293121 2080372479</internalNodes>
          <leafValues>
            -6.1127597093582153e-01 7.3239433765411377e-01</leafValues></_>
        <_>
          <internalNodes>
            0 -1 115 -1050113 -9291 1994845661 -612804845 -58998817
            -1141170241 -142149889 2069358331</internalNodes>
          <leafValues>
            -5.3212332725524902e-01 7.9169267416000366e-01</leafValues></_>
        <_>
          <internalNodes>
            0 -1 127 -3417349 -2404806 -4263939 2067529183 -709157158
            -546378774 -447678741 2047595226</internalNodes>
          <leafValues>
            -5.8594673871994019e-01 6.6236925125122070e-01</leafValues></_>
        <_>
          <internalNodes>
            0 -1 95 -46139137 -5253394 -1379932419 2146172919 -67109181
            -25919665 -25168930 2069624827</internalNodes>
          <leafValues>
            -5.3730958700180054e-01 6.7321068048477173e-01</leafValues></_></weakClassifiers></_>
    <!-- stage 3 -->
    <_>
      <maxWeakCount>5</maxWeakCount>
      <stageThreshold>-1.6013309955596924e+00</stageThreshold>
      <weakClassifiers>
        <_>
          <internalNodes>
            0 -1 65 -2097665 -655598 -558897481 1935621559 -135233
            -1839489 -67134209 2080110431</internalNodes>
          <leafValues>
            -5.6894052028656006e-01 7.1046227216720581e-01</leafValues></_>
        <_>
          <internalNodes>
            0 -1 124 -513 -67633993 -545980419 -204118021 -271154
            -1171714 -537213237 1599864831</internalNodes>
          <leafValues>
            -5.2863854169845581e-01 7.5865763425827026e-01</leafValues></_>
        <_>
          <internalNodes>
            0 -1 52 -619187493 -673590581 -1806628385 1890566335
            -1718373799 -1643544263 1803915003 2135939519</internalNodes>
          <leafValues>
            -6.0911786556243896e-01 6.3838005065917969e-01</leafValues></_>
        <_>
          <internalNodes>
            0 -1 53 -10520865 -1735894921 1682534618 459084248
            -355820821 -593081798 -81084258 2117242875</internalNodes>
          <leafValues>
            -6.4239627122879028e-01 5.7276797294616699e-01</leafValues></_>
        <_>
          <internalNodes>
            0 -1 133 -713312513 -564979558 -637395811 1603737981
            -285165369 -1467117510 -1324680993 1572470783</internalNodes>
          <leafValues>
            -5.3953403234481812e-01 6.5111339092254639e-01</leafValues></_></weakClassifiers></_>
    <!-- stage 4 -->
    <_>
      <maxWeakCount>5</maxWeakCount>
      <stageThreshold>-1.1683114767074585e+00</stageThreshold>
      <weakClassifiers>
        <_>
          <internalNodes>
            0 -1 139 -6291969 -2756753 -134250497 -33049 -1079259394
            -81025 -1157837313 2100819851</internalNodes>
          <leafValues>
            -5.7501906156539917e-01 6.2570464611053467e-01</leafValues></_>
        <_>
          <internalNodes>
            0 -1 114 -709113089 1595474417 1370271903 2142344681
            -897406246 -1410381783 2058521087 2132001163</internalNodes>
          <leafValues>
            -5.6638807058334351e-01 5.5228900909423828e-01</leafValues></_>
        <_>
          <internalNodes>
            0 -1 106 -1118090008 -1615445997 290478557 935903235
            -323173752 -355019710 -1081807879 2141319115</internalNodes>
          <leafValues>
            -6.4149481058120728e-01 3.9022704958915710e-01</leafValues></_>
        <_>
          <internalNodes>
            0 -1 41 -1305215030 -107998915 1074825420 1939620632
            -383105502 -1052670460 -1910418465 1953692437</internalNodes>
          <leafValues>
            -7.3399227857589722e-01 2.8829160332679749e-01</leafValues></_>
        <_>
          <internalNodes>
            0 -1 104 -1147219717 -905854908 155224149 13859009
            -369057080 -75344847 -91895401 1531179251</internalNodes>
          <leafValues>
            -6.0791712999343872e-01 3.2629889249801636e-01</leafValues></_></weakClassifiers></_>
    <!-- stage 5 -->
    <_>
      <maxWeakCount>7</maxWeakCount>
      <stageThreshold>-1.2338699102401733e+00</stageThreshold>
      <weakClassifiers>
        <_>
          <internalNodes>
            0 -1 9 855671703 -518421089 -242902386 -539776049 -61875797
            -1142042621 -1701775201 2076179199</internalNodes>
          <leafValues>
            -6.2433862686157227e-01 4.7654783725738525e-01</leafValues></_>
        <_>
          <internalNodes>
            0 -1 66 -776904705 -1156353705 675287263 -1617979237
            -250002728 -136361879 -1811883573 2059059087</internalNodes>
          <leafValues>
            -5.4047793149948120e-01 4.1651222109794617e-01</leafValues></_>
        <_>
          <internalNodes>
            0 -1 102 -250488172 -1253666984 -1652013409 -1480444794
            -1742958696 -1195617106 -1115620438 2139840414</internalNodes>
          <leafValues>
            -5.5182087421417236e-01 3.7768271565437317e-01</leafValues></_>
        <_>
          <internalNodes>
            0 -1 2 -647983392 -706912055 -2062886522 765430223 -97130306
            -528891496 -1417504017 1945684940</internalNodes>
          <leafValues>
            -7.2086477279663086e-01 2.4182599782943726e-01</leafValues></_>
        <_>
          <internalNodes>
            0 -1 77 831529828 -409908928 -2013209280 1251580336
            -209132046 -358629238 -1826500368 -271458588</internalNodes>
          <leafValues>
            -5.5842041969299316e-01 3.4201177954673767e-01</leafValues></_>
        <_>
          <internalNodes>
            0 -1 29 1075647704 -938440219 -670731776 403792389
            -836756530 -325943008 -339686678 967754415</internalNodes>
          <leafValues>
            -7.0290201902389526e-01 2.8077769279479980e-01</leafValues></_>
        <_>
          <internalNodes>
            0 -1 7 -1201422377 -43616261 -1426391378 -1259016705
            -369240324 -142999697 -562233346 -69079047</internalNodes>
          <leafValues>
            -3.5515829920768738e-01 6.0299241542816162e-01</leafValues></_></weakClassifiers></_>
    <!-- stage 6 -->
    <_>
      <maxWeakCount>12</maxWeakCount>
      <stageThreshold>-1.2966893911361694e+00</stageThreshold>
      <weakClassifiers>
        <_>
          <internalNodes>
            0 -1 58 -1277116751 2137881083 -1134849 -2428049 -606210
            -8921090 -4456530 -67371556</internalNodes>
          <leafValues>
            -3.7457045912742615e-01 4.6308726072311401e-01</leafValues></_>
        <_>
          <internalNodes>
            0 -1 11 -1828420636 1897209861 -1609871928 1934643239
            -1803353469 659620370 -373042542 2044185307</internalNodes>
          <leafValues>
            -7.1992045640945435e-01 2.4099159240722656e-01</leafValues></_>
        <_>
          <internalNodes>
            0 -1 108 -1866670980 -1828605816 270832003 -251358712
            -645353370 -116702581 -1062223258 1042302464</internalNodes>
          <leafValues>
            -7.3892742395401001e-01 1.3360704481601715e-01</leafValues></_>
        <_>
          <internalNodes>
            0 -1 119 -1395179 -654677252 -1932654786 1382743804
            -671746462 -263366078 1525098491 -1822694201</internalNodes>
          <leafValues>
            -2.1945658326148987e-01 6.9271099567413330e-01</leafValues></_>
        <_>
          <internalNodes>
            0 -1 15 100668160 -112180012 -1022865038 -1189906222
            -1959346176 1611440288 -1207918029 1069237269</internalNodes>
          <leafValues>
            -7.6862150430679321e-01 1.5269479155540466e-01</leafValues></_>
        <_>
          <internalNodes>
            0 -1 26 -1351256463 -1749323906 -18255895 2146270838
            -338178985 -65667 -497062915 -1082624011</internalNodes>
          <leafValues>
            -2.1881628036499023e-01 6.3311398029327393e-01</leafValues></_>
        <_>
          <internalNodes>
            0 -1 44 -1073052648 -1774059296 1101054288 -2011872938
            1476403484 939788440 -804748726 736809797</internalNodes>
          <leafValues>
            -7.3032969236373901e-01 1.7532603442668915e-01</leafValues></_>
        <_>
          <internalNodes>
            0 -1 136 525731477 2147352573 2147418107 -516 -4358
            -33619969 -10 -272898320</internalNodes>
          <leafValues>
            -2.4908645451068878e-01 5.2027052640914917e-01</leafValues></_>
        <_>
          <internalNodes>
            0 -1 38 1344009946 -1052704487 1140921480 -536786750
            -335314551 -1862270768 1300348944 542104453</internalNodes>
          <leafValues>
            -7.0040708780288696e-01 1.7941682040691376e-01</leafValues></_>
        <_>
          <internalNodes>
            0 -1 87 -130295846 -1183630290 519798655 2071739864
            -553869740 2015215540 1522054138 -1167425829</internalNodes>
          <leafValues>
            -1.8672548234462738e-01 7.2915512323379517e-01</leafValues></_>
        <_>
          <internalNodes>
            0 -1 17 307405316 1905754134 1360166993 353435721 572588489
            -972816118 -502256928 1996572177</internalNodes>
          <leafValues>
            -7.4807173013687134e-01 1.7153269052505493e-01</leafValues></_>
        <_>
          <internalNodes>
            0 -1 89 -662709047 362870479 673152929 408159901 2096521048
            -69021421 -757866565 -1763745121</internalNodes>
          <leafValues>
            -1.9594728946685791e-01 7.6933354139328003e-01</leafValues></_></weakClassifiers></_>
    <!-- stage 7 -->
    <_>
      <maxWeakCount>12</maxWeakCount>
      <stageThreshold>-1.1855421066284180e+00</stageThreshold>
      <weakClassifiers>
        <_>
          <internalNodes>
            0 -1 83 810565477 -216936291 -1056599389 -611647358
            -878243117 -368861109 -972838105 -73432388</internalNodes>
          <leafValues>
            -4.0415704250335693e-01 3.6071032285690308e-01</leafValues></_>
        <_>
          <internalNodes>
            0 -1 92 -76291370 -115830491 1753633807 1540376607
            -1909352326 -1743617911 -502650085 938599131</internalNodes>
          <leafValues>
            -5.7694113254547119e-01 3.1625449657440186e-01</leafValues></_>
        <_>
          <internalNodes>
            0 -1 36 -1111510051 -152830217 -1694503297 -740559002
            -310534242 1786601461 -1359086389 -67567620</internalNodes>
          <leafValues>
            -2.0823749899864197e-01 6.5557813644409180e-01</leafValues></_>
        <_>
          <internalNodes>
            0 -1 13 -251115302 1423114460 -729807937 389045233
            -352138616 -1476197634 -896755014 1242225641</internalNodes>
          <leafValues>
            -6.8273705244064331e-01 2.2279699146747589e-01</leafValues></_>
        <_>
          <internalNodes>
            0 -1 112 -537794919 2139852448 -1124139025 296246138
            -679623274 1713053487 -562561281 -27789379</internalNodes>
          <leafValues>
            -2.0830936729907990e-01 7.2060292959213257e-01</leafValues></_>
        <_>
          <internalNodes>
            0 -1 105 -804134744 -617676142 -1065348392 1879231234
            -2130423616 -1875897781 1514150399 1108526099</internalNodes>
          <leafValues>
            -7.9962939023971558e-01 1.5622721612453461e-01</leafValues></_>
        <_>
          <internalNodes>
            0 -1 99 -1742570884 -538067074 1073704831 -213253 -704521
            2147450871 -1342242955 -1342514952</internalNodes>
          <leafValues>
            -2.6639419794082642e-01 5.0681620836257935e-01</leafValues></_>
        <_>
          <internalNodes>
            0 -1 5 1371601642 268501019 411077068 -1835658859 -804736308
            419725953 -1576739026 1881254580</internalNodes>
          <leafValues>
            -7.6466834545135498e-01 1.6552753746509552e-01</leafValues></_>
        <_>
          <internalNodes>
            0 -1 81 384745153 -67117639 805207635 -539361793 -614965522
            -405024932 -147677281 -7406140</internalNodes>
          <leafValues>
            -1.8735040724277496e-01 6.9776868820190430e-01</leafValues></_>
        <_>
          <internalNodes>
            0 -1 30 -1170797397 -913292799 -1070493298 -2137923432
            -2146893494 -401596416 -871726461 2045374363</internalNodes>
          <leafValues>
            -6.4907819032669067e-01 2.0084725320339203e-01</leafValues></_>
        <_>
          <internalNodes>
            0 -1 123 -1813069670 -17040417 1995995757 2070411258
            532580426 -539328933 -8863073 -623321140</internalNodes>
          <leafValues>
            -1.8526162207126617e-01 6.2858039140701294e-01</leafValues></_>
        <_>
          <internalNodes>
            0 -1 90 -1608490852 1376065280 1076379655 289474704
            318851566 320880720 -2071867662 1808906373</internalNodes>
          <leafValues>
            -6.6933953762054443e-01 1.8242517113685608e-01</leafValues></_></weakClassifiers></_>
    <!-- stage 8 -->
    <_>
      <maxWeakCount>11</maxWeakCount>
      <stageThreshold>-6.1149340867996216e-01</stageThreshold>
      <weakClassifiers>
        <_>
          <internalNodes>
            0 -1 111 270570288 -754171518 -140308333 1905345657
            1091169204 -846609397 -1596928357 1590944723</internalNodes>
          <leafValues>
            -6.3126844167709351e-01 1.4980289340019226e-01</leafValues></_>
        <_>
          <internalNodes>
            0 -1 101 -2126497156 -1249124153 -1073688561 -116129651
            -1304406169 -393518536 -486499610 -3188112</internalNodes>
          <leafValues>
            -4.1206577420234680e-01 3.8703083992004395e-01</leafValues></_>
        <_>
          <internalNodes>
            0 -1 110 -580985889 -765898186 -2113598632 -846719752
            -493836490 -763174743 -939491254 539554390</internalNodes>
          <leafValues>
            -6.0573923587799072e-01 2.5167089700698853e-01</leafValues></_>
        <_>
          <internalNodes>
            0 -1 12 318442698 -1150083233 -1879113988 -1078263825 -579
            -253985 -1293190046 -877765293</internalNodes>
          <leafValues>
            -2.2242812812328339e-01 5.4223847389221191e-01</leafValues></_>
        <_>
          <internalNodes>
            0 -1 79 1079305316 -775400813 -2021194561 1904541702
            -1526500678 -465370847 -1607274181 1846369902</internalNodes>
          <leafValues>
            -6.2759727239608765e-01 1.8899099528789520e-01</leafValues></_>
        <_>
          <internalNodes>
            0 -1 69 -1214989555 -43024514 -1094910249 -710591523
            -270403892 -134742155 -838992164 -812384261</internalNodes>
          <leafValues>
            -1.9427867233753204e-01 6.8767917156219482e-01</leafValues></_>
        <_>
          <internalNodes>
            0 -1 84 -1875888428 -780664168 -2012852216 1565098248
            -1693937578 1212219841 -41367505 1320798680</internalNodes>
          <leafValues>
            -7.4904090166091919e-01 1.6038414835929871e-01</leafValues></_>
        <_>
          <internalNodes>
            0 -1 55 -594289989 -201335512 -629234137 1070317302
            -2022258550 1320336834 -565064034 -563446045</internalNodes>
          <leafValues>
            -1.4369769394397736e-01 7.8980833292007446e-01</leafValues></_>
        <_>
          <internalNodes>
            0 -1 120 -1341564716 -654243836 1140855449 275778831
            -1467952948 805343328 323535016 9091123</internalNodes>
          <leafValues>
            -7.4818676710128784e-01 1.4619125425815582e-01</leafValues></_>
        <_>
          <internalNodes>
            0 -1 18 -1150373890 -467076 -1360068992 1945365501
            -318775333 -418476 -772342089 -6162601</internalNodes>
          <leafValues>
            -1.6762980818748474e-01 7.0990246534347534e-01</leafValues></_>
        <_>
          <internalNodes>
            0 -1 80 -55618853 -4714850 -637704842 2070567487 -69508550
            -825883 1534914558 -610599750</internalNodes>
          <leafValues>
            -1.6536153852939606e-01 7.2954314947128296e-01</leafValues></_></weakClassifiers></_>
    <!-- stage 9 -->
    <_>
      <maxWeakCount>28</maxWeakCount>
      <stageThreshold>-9.1491085290908813e-01</stageThreshold>
      <weakClassifiers>
        <_>
          <internalNodes>
            0 -1 8 318768130 -525485922 -910147502 -1726904063 17203451
            -1874263998 -593459040 -625487348</internalNodes>
          <leafValues>
            -5.0825083255767822e-01 4.2105263471603394e-01</leafValues></_>
        <_>
          <internalNodes>
            0 -1 63 -666144033 311989278 1879216222 -925106095
            -1958534528 268583680 -1987999616 1398993473</internalNodes>
          <leafValues>
            -6.6627043485641479e-01 1.6575832664966583e-01</leafValues></_>
        <_>
          <internalNodes>
            0 -1 45 -1073751053 -12624197 1793257138 1509799935
            -444625165 -1982169259 -34767158 -1632829444</internalNodes>
          <leafValues>
            -1.9192121922969818e-01 7.4456137418746948e-01</leafValues></_>
        <_>
          <internalNodes>
            0 -1 16 -1862221736 -1856237232 -2147483565 1510014992
            -83574648 -1610070016 -720795478 90411547</internalNodes>
          <leafValues>
            -7.7798539400100708e-01 1.3733433187007904e-01</leafValues></_>
        <_>
          <internalNodes>
            0 -1 100 -1452248936 -453100050 -67375127 -1352001537
            -542781 -84053515 1979055890 -354223233</internalNodes>
          <leafValues>
            -2.2592990100383759e-01 6.2951463460922241e-01</leafValues></_>
        <_>
          <internalNodes>
            0 -1 27 19176144 1075953749 -978305020 -1067288573
            -1793015286 -2078138352 -805167550 1123609112</internalNodes>
          <leafValues>
            -8.2378143072128296e-01 1.4874297380447388e-01</leafValues></_>
        <_>
          <internalNodes>
            0 -1 130 2000887323 -306226946 -19481473 -604372995 -2228432
            -1722329362 -294979842 -604442774</internalNodes>
          <leafValues>
            -1.8216454982757568e-01 7.2538131475448608e-01</leafValues></_>
        <_>
          <internalNodes>
            0 -1 149 -1845325158 -45907839 413720 411046933 -2105507680
            -1601699800 -1035450229 1114687022</internalNodes>
          <leafValues>
            -7.8804206848144531e-01 1.5433609485626221e-01</leafValues></_>
        <_>
          <internalNodes>
            0 -1 97 -1288219464 -537354275 -1610629381 1585145589
            -1076354666 -420266634 1159273673 -1343163866</internalNodes>
          <leafValues>
            -1.8910026550292969e-01 7.0306754112243652e-01</leafValues></_>
        <_>
          <internalNodes>
            0 -1 47 -653043606 1459630084 -1073704955 1431717010
            1149264072 -2137749440 1225292456 1108477626</internalNodes>
          <leafValues>
            -7.8926503658294678e-01 9.0998627245426178e-02</leafValues></_>
        <_>
          <internalNodes>
            0 -1 117 -872896354 -361558158 -1359022381 -1318487317
            -143749537 -1355843720 1525564415 -1013145943</internalNodes>
          <leafValues>
            -1.4757117629051208e-01 7.5543498992919922e-01</leafValues></_>
        <_>
          <internalNodes>
            0 -1 126 -1572216124 842420308 -2147160823 -804191724
            -125720575 -1073233398 -503280993 53184946</internalNodes>
          <leafValues>
            -8.0794143676757812e-01 1.0188993811607361e-01</leafValues></_>
        <_>
          <internalNodes>
            0 -1 24 455316656 1073736956 -1 -943808513 -1090588929
            -285212673 2143158271 -570434692</internalNodes>
          <leafValues>
            -1.5971396863460541e-01 6.4680516719818115e-01</leafValues></_>
        <_>
          <internalNodes>
            0 -1 121 139723285 -783285695 -2147381087 336365696
            940917002 134217740 -2146434904 1865098186</internalNodes>
          <leafValues>
            -7.1472686529159546e-01 1.1368239670991898e-01</leafValues></_>
        <_>
          <internalNodes>
            0 -1 116 -1237418278 -101204097 -402956430 720273407
            2147243162 -856064137 -631388194 -1090918401</internalNodes>
          <leafValues>
            -1.3351804018020630e-01 7.4756950139999390e-01</leafValues></_>
        <_>
          <internalNodes>
            0 -1 91 -174631479 -210805086 1257897853 2139799551
            -537084528 -1611661706 -562642956 -631710469</internalNodes>
          <leafValues>
            -9.3922831118106842e-02 7.8906363248825073e-01</leafValues></_>
        <_>
          <internalNodes>
            0 -1 56 1074184302 557875200 -2147481262 1766326538
            -1979164634 992086401 -2146948855 1703017375</internalNodes>
          <leafValues>
            -6.9051420688629150e-01 1.3464707136154175e-01</leafValues></_>
        <_>
          <internalNodes>
            0 -1 144 -86115205 -536954881 1862205141 -225526019
            -36017560 -278434020 -279455905 -624042374</internalNodes>
          <leafValues>
            -1.1321045458316803e-01 7.6265203952789307e-01</leafValues></_>
        <_>
          <internalNodes>
            0 -1 31 151293964 1476712451 1210517945 1347421188
            -2121072507 564690963 1879080981 2005524612</internalNodes>
          <leafValues>
            -8.2751458883285522e-01 9.0531148016452789e-02</leafValues></_>
        <_>
          <internalNodes>
            0 -1 22 -1082806762 -546897924 -65537 -1275367492 -43188276
            -170028 -536870993 -202506276</internalNodes>
          <leafValues>
            -1.0466802865266800e-01 6.9684696197509766e-01</leafValues></_>
        <_>
          <internalNodes>
            0 -1 42 -1704558036 -1744596988 -2146429563 1343586307
            -1602224067 178520072 -1412849650 1982132264</internalNodes>
          <leafValues>
            -8.0928432941436768e-01 8.0122523009777069e-02</leafValues></_>
        <_>
          <internalNodes>
            0 -1 141 -226865476 -134250753 2146631549 -236257291
            -67121894 -415278130 2119769075 -871632302</internalNodes>
          <leafValues>
            -8.8644079864025116e-02 7.5914859771728516e-01</leafValues></_>
        <_>
          <internalNodes>
            0 -1 48 -50997068 -8423433 -1635782681 2146135486 -327800
            -1073774596 -270600464 -6498847</internalNodes>
          <leafValues>
            -6.4561381936073303e-02 7.6348942518234253e-01</leafValues></_>
        <_>
          <internalNodes>
            0 -1 118 -1073655484 75833633 135274513 -800693992
            -536870482 -1568669672 -1065312109 1767598320</internalNodes>
          <leafValues>
            -7.9995584487915039e-01 8.4683932363986969e-02</leafValues></_>
        <_>
          <internalNodes>
            0 -1 143 -286290083 -537952724 2147418058 1920285581
            -1627497475 998113279 937230178 -782424614</internalNodes>
          <leafValues>
            -5.2703630179166794e-02 8.0825895071029663e-01</leafValues></_>
        <_>
          <internalNodes>
            0 -1 71 -2013195936 -803923968 -1073741820 -872312765
            -1341592510 -1870299135 -2013198318 1259039395</internalNodes>
          <leafValues>
            -9.0009611845016479e-01 5.0502117723226547e-02</leafValues></_>
        <_>
          <internalNodes>
            0 -1 64 -1943777359 -1342242819 2147479215 1870397438
            -135436 -163849 -151158799 -2408618</internalNodes>
          <leafValues>
            -6.1014670878648758e-02 8.3833777904510498e-01</leafValues></_>
        <_>
          <internalNodes>
            0 -1 20 1166068482 -670466046 -2122252002 1385234497
            -536838014 134283264 146849928 1476939819</internalNodes>
          <leafValues>
            -8.3191001415252686e-01 4.8754699528217316e-02</leafValues></_></weakClassifiers></_>
    <!-- stage 10 -->
    <_>
      <maxWeakCount>100</maxWeakCount>
      <stageThreshold>-1.0866911411285400e+00</stageThreshold>
      <weakClassifiers>
        <_>
          <internalNodes>
            0 -1 34 273683460 -1470671616 1112195072 -1069513830
            -1995489144 1753284609 4292611 -15941396</internalNodes>
          <leafValues>
            -5.6401944160461426e-01 5.1345753669738770e-01</leafValues></_>
        <_>
          <internalNodes>
            0 -1 28 -1141645859 -688523 -1728257293 -75710850 -302055821
            -26480644 1056964596 -206700707</internalNodes>
          <leafValues>
            -1.7212639749050140e-01 7.5117027759552002e-01</leafValues></_>
        <_>
          <internalNodes>
            0 -1 68 1428196861 -1001136125 -1718611450 752599618
            -2109636464 1880303620 1078127211 423352507</internalNodes>
          <leafValues>
            -7.5507402420043945e-01 1.9414995610713959e-01</leafValues></_>
        <_>
          <internalNodes>
            0 -1 75 -1125213346 -726808850 -1208031519 956020726
            -153406011 1844369358 846555198 -1468383748</internalNodes>
          <leafValues>
            -1.8442530930042267e-01 7.2891402244567871e-01</leafValues></_>
        <_>
          <internalNodes>
            0 -1 14 274157784 1912733776 -1073147898 936497411
            -754417592 1778420132 -1034450918 201619584</internalNodes>
          <leafValues>
            -8.1521219015121460e-01 1.3556700944900513e-01</leafValues></_>
        <_>
          <internalNodes>
            0 -1 128 -558901117 -202740385 -1409482959 1494820784
            -1627981062 -2013581611 -570491185 -1338272023</internalNodes>
          <leafValues>
            -1.4232495427131653e-01 8.5446059703826904e-01</leafValues></_>
        <_>
          <internalNodes>
            0 -1 86 -331618093 1967439648 -536969349 1903541876
            399802241 -739836012 -8657413 -172108357</internalNodes>
          <leafValues>
            -1.3322660326957703e-01 8.2687783241271973e-01</leafValues></_>
        <_>
          <internalNodes>
            0 -1 59 441462980 -762314730 1212160215 -760438655
            1073971474 -159248384 88129666 414855624</internalNodes>
          <leafValues>
            -8.8210684061050415e-01 1.3323618471622467e-01</leafValues></_>
        <_>
          <internalNodes>
            0 -1 35 -275108452 -420729345 -16908565 -1109000194
            -1627897988 -1375994113 -27296066 -21921830</internalNodes>
          <leafValues>
            -1.2799796462059021e-01 7.8888076543807983e-01</leafValues></_>
        <_>
          <internalNodes>
            0 -1 76 -804224780 -1472167896 403211222 1292896769
            -1006072928 -1431727968 -2012479294 1676595200</internalNodes>
          <leafValues>
            -7.8329569101333618e-01 1.0638113319873810e-01</leafValues></_>
        <_>
          <internalNodes>
            0 -1 146 -118637314 1987702393 2134884319 1534983932
            -537108918 -1610757770 1509580243 -514228399</internalNodes>
          <leafValues>
            -1.2908211350440979e-01 7.8481948375701904e-01</leafValues></_>
        <_>
          <internalNodes>
            0 -1 85 1879098836 -2121858169 -1728035584 -1384595174
            -1810806264 704774272 -1945679518 85201099</internalNodes>
          <leafValues>
            -8.3924442529678345e-01 8.9499384164810181e-02</leafValues></_>
        <_>
          <internalNodes>
            0 -1 54 2128444548 -536907909 2120919471 -88113683
            -276859408 -235442706 1451224945 -1161560579</internalNodes>
          <leafValues>
            -1.1941401660442352e-01 7.9239249229431152e-01</leafValues></_>
        <_>
          <internalNodes>
            0 -1 142 -17721121 -1074217602 -629407745 -612376901
            -268437992 -687900805 1524561342 -78191009</internalNodes>
          <leafValues>
            -8.6988940834999084e-02 8.0087888240814209e-01</leafValues></_>
        <_>
          <internalNodes>
            0 -1 40 -212840312 1367539841 806437320 -1979677694 33767657
            -318210040 -1987018743 1058291904</internalNodes>
          <leafValues>
            -8.2917624711990356e-01 1.1360118538141251e-01</leafValues></_>
        <_>
          <internalNodes>
            0 -1 70 -1100630049 -873693251 -4107 -1279775751 2138885837
            1727066076 -1090748434 -268828719</internalNodes>
          <leafValues>
            -1.1777506768703461e-01 7.3035967350006104e-01</leafValues></_>
        <_>
          <internalNodes>
            0 -1 88 -117776685 -571514899 1573355258 1555947366
            -16831134 -34635826 -42490183 -426197240</internalNodes>
          <leafValues>
            -4.5083601027727127e-02 7.8543233871459961e-01</leafValues></_>
        <_>
          <internalNodes>
            0 -1 96 -1055734826 -1717567072 -1878507435 -661646079
            -929921323 17334288 39170 1125285931</internalNodes>
          <leafValues>
            -7.5008851289749146e-01 9.5415644347667694e-02</leafValues></_>
        <_>
          <internalNodes>
            0 -1 140 -29648228 -1610779047 2122264511 2108390907
            1593743131 -1074069513 1064875964 -880812038</internalNodes>
          <leafValues>
            -8.7041981518268585e-02 8.2060253620147705e-01</leafValues></_>
        <_>
          <internalNodes>
            0 -1 94 -277350697 -51020098 2058320875 -550240276 -18951466
            -1086947747 -17006593 -12431429</internalNodes>
          <leafValues>
            -4.4239386916160583e-02 9.2049676179885864e-01</leafValues></_>
        <_>
          <internalNodes>
            0 -1 135 790098 -788529130 -1978661850 -1861073756
            -536772477 -1072693248 -125465918 1520683145</internalNodes>
          <leafValues>
            -8.8671356439590454e-01 7.7967993915081024e-02</leafValues></_>
        <_>
          <internalNodes>
            0 -1 60 -69747949 -16810505 -69272577 964640767 2126829153
            -162 -6299650 -1611992235</internalNodes>
          <leafValues>
            -5.1354505121707916e-02 8.9168792963027954e-01</leafValues></_>
        <_>
          <internalNodes>
            0 -1 61 -1073606182 -1071644240 67113113 -771731456
            1208001163 537020417 203982987 1367966225</internalNodes>
          <leafValues>
            -8.5334044694900513e-01 5.3014889359474182e-02</leafValues></_>
        <_>
          <internalNodes>
            0 -1 113 -1138828193 1244637692 -25330993 -958791690
            -138906192 -722543113 -436799586 -1624082689</internalNodes>
          <leafValues>
            -5.4737720638513565e-02 8.3586746454238892e-01</leafValues></_>
        <_>
          <internalNodes>
            0 -1 19 -788287466 1946257411 -2147483308 1225310729
            -1068889728 469958664 537591811 1225261159</internalNodes>
          <leafValues>
            -7.7364295721054077e-01 4.9692239612340927e-02</leafValues></_>
        <_>
          <internalNodes>
            0 -1 109 -1651233543 -1610612737 2147483647 -1073872897
            -655362 -1073840129 1073741694 -42058064</internalNodes>
          <leafValues>
            -6.4717590808868408e-02 7.2013765573501587e-01</leafValues></_>
        <_>
          <internalNodes>
            0 -1 125 5890160 277876738 -2130638769 68232208 -1325321832
            -897471871 -796868591 411615247</internalNodes>
          <leafValues>
            -8.5955405235290527e-01 3.2199848443269730e-02</leafValues></_>
        <_>
          <internalNodes>
            0 -1 107 1046462275 -143855746 -136380682 -1312778
            2147383006 2130149245 1576400626 -40864004</internalNodes>
          <leafValues>
            -2.9726454988121986e-02 8.8230270147323608e-01</leafValues></_>
        <_>
          <internalNodes>
            0 -1 93 268600533 -804257776 -1073446871 -2117582831
            -2113893900 -2142756858 75530252 1386513027</internalNodes>
          <leafValues>
            -8.6716657876968384e-01 2.7111737057566643e-02</leafValues></_>
        <_>
          <internalNodes>
            0 -1 103 -1226120486 -688128101 2063530730 -1224749449
            2013159186 1732241135 -1275118344 -2021983363</internalNodes>
          <leafValues>
            -3.2172586768865585e-02 9.2958843708038330e-01</leafValues></_>
        <_>
          <internalNodes>
            0 -1 147 -802127806 357105728 1171 924844051 -536838014
            -2130180092 230025 542532097</internalNodes>
          <leafValues>
            -9.3124109506607056e-01 2.2854441776871681e-02</leafValues></_>
        <_>
          <internalNodes>
            0 -1 74 -25322296 -1632666641 -8466889 1130823663
            -1124111100 -403701897 -44171714 -605225091</internalNodes>
          <leafValues>
            -2.8089731931686401e-02 9.2072355747222900e-01</leafValues></_>
        <_>
          <internalNodes>
            0 -1 137 -1253844352 1367343488 16 -1022619647 -1979497456
            -1065353194 268470442 1527251883</internalNodes>
          <leafValues>
            -8.8043212890625000e-01 2.3604454472661018e-02</leafValues></_>
        <_>
          <internalNodes>
            0 -1 10 -1078480322 -285540361 2138995306 1543438207
            2147450842 1593835391 1988097662 -218300564</internalNodes>
          <leafValues>
            -2.3327376693487167e-02 9.3633830547332764e-01</leafValues></_>
        <_>
          <internalNodes>
            0 -1 39 285692698 -788463614 65545 822092032 -2139086712
            402718848 956892160 2026078223</internalNodes>
          <leafValues>
            -9.4550609588623047e-01 1.3045584782958031e-02</leafValues></_>
        <_>
          <internalNodes>
            0 -1 72 2121944444 217808383 -71401539 -44335362 -134316577
            -1644232705 -549486666 -1607150316</internalNodes>
          <leafValues>
            -1.6457138583064079e-02 9.4526088237762451e-01</leafValues></_>
        <_>
          <internalNodes>
            0 -1 57 -2147434274 285278244 16777520 806633481 -2147483511
            -1308162032 -2011157605 185581707</internalNodes>
          <leafValues>
            -9.5982104539871216e-01 1.0480879805982113e-02</leafValues></_>
        <_>
          <internalNodes>
            0 -1 98 -1498929156 -513 -146 -16810497 -2 -3 -4259852
            -1610678404</internalNodes>
          <leafValues>
            -8.5165575146675110e-03 8.8926869630813599e-01</leafValues></_>
        <_>
          <internalNodes>
            0 -1 67 -645668457 281018369 16777219 -805208064 82448
            33554432 134250513 1089159200</internalNodes>
          <leafValues>
            -9.5005047321319580e-01 6.9080102257430553e-03</leafValues></_>
        <_>
          <internalNodes>
            0 -1 33 2147454058 -16778242 2130640574 1056439542 -184
            -277446709 2138046073 -1862600843</internalNodes>
          <leafValues>
            -7.6883798465132713e-03 9.8971217870712280e-01</leafValues></_>
        <_>
          <internalNodes>
            0 -1 145 -1459564203 -1877933823 541067280 -788463608 0
            -2130575360 229514 2038432747</internalNodes>
          <leafValues>
            -1. 6.1823590658605099e-03</leafValues></_>
        <_>
          <internalNodes>
            0 -1 138 2146307836 -608174114 -226509060 1742503935 -82228
            2147450623 2147478399 -865800449</internalNodes>
          <leafValues>
            -7.8250477090477943e-03 9.6068578958511353e-01</leafValues></_>
        <_>
          <internalNodes>
            0 -1 32 -1845424105 1091567617 -2080374399 -1324351484
            -2138570613 -939523968 268960901 427853835</internalNodes>
          <leafValues>
            -9.8596644401550293e-01 6.5777068957686424e-03</leafValues></_>
        <_>
          <internalNodes>
            0 -1 49 8388608 -2147483648 0 -2147483648 0 0 64 -2146926584</internalNodes>
          <leafValues>
            -8.8998479768633842e-03 9.0373075008392334e-01</leafValues></_>
        <_>
          <internalNodes>
            0 -1 3 -1056180629 262146 36993 -1610547135 -1878261631
            268567552 -1774185378 1713045571</internalNodes>
          <leafValues>
            -1. -3.4530684933997691e-04</leafValues></_>
        <_>
          <internalNodes>
            0 -1 21 1071660404 -8193 -2 -16850946 -1073807617 -285212673
            -3 -656420</internalNodes>
          <leafValues>
            4.5418329536914825e-03 9.8189562559127808e-01</leafValues></_>
        <_>
          <internalNodes>
            0 -1 6 -1056714461 1073840129 65539 -2013200383 16908289
            1048576 -1073676278 160108675</internalNodes>
          <leafValues>
            -9.8724961280822754e-01 -2.4862540885806084e-04</leafValues></_>
        <_>
          <internalNodes>
            0 -1 132 1052512116 -32769 -134217729 2139095039 -163843
            -1025 -536936706 -1208451076</internalNodes>
          <leafValues>
            8.4458495257422328e-04 1.</leafValues></_>
        <_>
          <internalNodes>
            0 -1 131 -737947517 32770 0 -2147418112 2 0 131075
            1216585827</internalNodes>
          <leafValues>
            -9.8824572563171387e-01 -2.2531105205416679e-03</leafValues></_>
        <_>
          <internalNodes>
            0 -1 50 444345044 -1610612737 -65539 -33026 -131073 -1 -259
            -1082359812</internalNodes>
          <leafValues>
            3.3235894516110420e-03 1.</leafValues></_>
        <_>
          <internalNodes>
            0 -1 1 -796659409 -2147479551 268959744 98306 2 0 16875792
            1218676739</internalNodes>
          <leafValues>
            -1. -2.6116175577044487e-03</leafValues></_>
        <_>
          <internalNodes>
            0 -1 82 787494908 -327684 -4129 -537001988 -1 -131073
            -1082195969 -1082359940</internalNodes>
          <leafValues>
            1.8654547166079283e-03 1.</leafValues></_>
        <_>
          <internalNodes>
            0 -1 150 -670318293 2 1073872896 -1879040000 536870912 32768
            163842 1194049546</internalNodes>
          <leafValues>
            -1. -2.8213467448949814e-03</leafValues></_>
        <_>
          <internalNodes>
            0 -1 134 779883576 -65537 -1 2147385340 -1073741825 -1
            -8388628 -1086538028</internalNodes>
          <leafValues>
            1.9170410232618451e-03 1.</leafValues></_>
        <_>
          <internalNodes>
            0 -1 129 -1056710141 -2130640895 0 1610678272 1 -2147483648
            0 1090732547</internalNodes>
          <leafValues>
            -1. -1.9991097506135702e-03</leafValues></_>
        <_>
          <internalNodes>
            0 -1 129 -1090764804 -65537 -1 -1073807361 -2 -1 -1
            -1073954820</internalNodes>
          <leafValues>
            2.2349627688527107e-03 1.</leafValues></_>
        <_>
          <internalNodes>
            0 -1 122 -1065095165 1073742336 0 134414337 4 -2147483648
            524289 1613463562</internalNodes>
          <leafValues>
            -1. -2.1640558261424303e-03</leafValues></_>
        <_>
          <internalNodes>
            0 -1 122 1073623036 -1073741825 -1 -2 -1 -1 -1 -1074495491</internalNodes>
          <leafValues>
            1.5569955576211214e-03 1.</leafValues></_>
        <_>
          <internalNodes>
            0 -1 148 -1610383357 0 0 65536 -2147483647 0 1 1212653571</internalNodes>
          <leafValues>
            -1. 5.1848002476617694e-04</leafValues></_>
        <_>
          <internalNodes>
            0 -1 0 0 0 0 0 0 0 0 -2145386496</internalNodes>
          <leafValues>
            -1.5006413450464606e-03 1.</leafValues></_>
        <_>
          <internalNodes>
            0 -1 0 -939274041 -1073676278 1073741827 -2130606079
            -1073721344 0 0 1092845571</internalNodes>
          <leafValues>
            -1. -7.1705994196236134e-04</leafValues></_>
        <_>
          <internalNodes>
            0 -1 0 1073496060 -1 -2 -16777218 -1 -1 -1 -196612</internalNodes>
          <leafValues>
            -7.5497198849916458e-04 1.</leafValues></_>
        <_>
          <internalNodes>
            0 -1 0 -1073495541 0 1 1090519041 128 0 268435456 196619</internalNodes>
          <leafValues>
            -1. 7.5497175566852093e-04</leafValues></_>
        <_>
          <internalNodes>
            0 -1 0 1073495540 -1 -2 -16777218 -1 -1 -1 -196612</internalNodes>
          <leafValues>
            9.3491160077974200e-04 1.</leafValues></_>
        <_>
          <internalNodes>
            0 -1 0 -1073495541 0 1 16777217 0 0 0 196611</internalNodes>
          <leafValues>
            -1. -9.3491119332611561e-04</leafValues></_>
        <_>
          <internalNodes>
            0 -1 0 1073495540 -1 -2 -16777218 -1 -1 -1 -196612</internalNodes>
          <leafValues>
            9.3491119332611561e-04 1.</leafValues></_>
        <_>
          <internalNodes>
            0 -1 0 -1073495541 0 1 16777217 0 0 0 196611</internalNodes>
          <leafValues>
            -1. -9.3491119332611561e-04</leafValues></_>
        <_>
          <internalNodes>
            0 -1 0 1073495540 -1 -2 -16777218 -1 -1 -1 -196612</internalNodes>
          <leafValues>
            9.3491119332611561e-04 1.</leafValues></_>
        <_>
          <internalNodes>
            0 -1 0 -1073495541 0 1 16777217 0 0 0 196611</internalNodes>
          <leafValues>
            -1. -9.3491119332611561e-04</leafValues></_>
        <_>
          <internalNodes>
            0 -1 0 1073495540 -1 -2 -16777218 -1 -1 -1 -196612</internalNodes>
          <leafValues>
            9.3491119332611561e-04 1.</leafValues></_>
        <_>
          <internalNodes>
            0 -1 0 -1073495541 0 1 16777217 0 0 0 196611</internalNodes>
          <leafValues>
            -1. -9.3491119332611561e-04</leafValues></_>
        <_>
          <internalNodes>
            0 -1 0 1073495540 -1 -2 -16777218 -1 -1 -1 -196612</internalNodes>
          <leafValues>
            9.3491119332611561e-04 1.</leafValues></_>
        <_>
          <internalNodes>
            0 -1 0 -1073495541 0 1 16777217 0 0 0 196611</internalNodes>
          <leafValues>
            -1. -9.3491119332611561e-04</leafValues></_>
        <_>
          <internalNodes>
            0 -1 0 1073495540 -1 -2 -16777218 -1 -1 -1 -196612</internalNodes>
          <leafValues>
            9.3491119332611561e-04 1.</leafValues></_>
        <_>
          <internalNodes>
            0 -1 0 -1073495541 0 1 16777217 0 0 0 196611</internalNodes>
          <leafValues>
            -1. -9.3491119332611561e-04</leafValues></_>
        <_>
          <internalNodes>
            0 -1 0 1073495540 -1 -2 -16777218 -1 -1 -1 -196612</internalNodes>
          <leafValues>
            9.3491119332611561e-04 1.</leafValues></_>
        <_>
          <internalNodes>
            0 -1 0 -1073495541 0 1 16777217 0 0 0 196611</internalNodes>
          <leafValues>
            -1. -9.3491119332611561e-04</leafValues></_>
        <_>
          <internalNodes>
            0 -1 0 1073495540 -1 -2 -16777218 -1 -1 -1 -196612</internalNodes>
          <leafValues>
            9.3491119332611561e-04 1.</leafValues></_>
        <_>
          <internalNodes>
            0 -1 0 -1073495541 0 1 16777217 0 0 0 196611</internalNodes>
          <leafValues>
            -1. -9.3491119332611561e-04</leafValues></_>
        <_>
          <internalNodes>
            0 -1 0 1073495540 -1 -2 -16777218 -1 -1 -1 -196612</internalNodes>
          <leafValues>
            9.3491119332611561e-04 1.</leafValues></_>
        <_>
          <internalNodes>
            0 -1 0 -1073495541 0 1 16777217 0 0 0 196611</internalNodes>
          <leafValues>
            -1. -9.3491119332611561e-04</leafValues></_>
        <_>
          <internalNodes>
            0 -1 0 1073495540 -1 -2 -16777218 -1 -1 -1 -196612</internalNodes>
          <leafValues>
            9.3491119332611561e-04 1.</leafValues></_>
        <_>
          <internalNodes>
            0 -1 0 -1073495541 0 1 16777217 0 0 0 196611</internalNodes>
          <leafValues>
            -1. -9.3491119332611561e-04</leafValues></_>
        <_>
          <internalNodes>
            0 -1 0 1073495540 -1 -2 -16777218 -1 -1 -1 -196612</internalNodes>
          <leafValues>
            9.3491119332611561e-04 1.</leafValues></_>
        <_>
          <internalNodes>
            0 -1 0 -1073495541 0 1 16777217 0 0 0 196611</internalNodes>
          <leafValues>
            -1. -9.3491119332611561e-04</leafValues></_>
        <_>
          <internalNodes>
            0 -1 0 1073495540 -1 -2 -16777218 -1 -1 -1 -196612</internalNodes>
          <leafValues>
            9.3491119332611561e-04 1.</leafValues></_>
        <_>
          <internalNodes>
            0 -1 0 -1073495541 0 1 16777217 0 0 0 196611</internalNodes>
          <leafValues>
            -1. -9.3491119332611561e-04</leafValues></_>
        <_>
          <internalNodes>
            0 -1 0 1073495540 -1 -2 -16777218 -1 -1 -1 -196612</internalNodes>
          <leafValues>
            9.3491119332611561e-04 1.</leafValues></_>
        <_>
          <internalNodes>
            0 -1 0 -1073495541 0 1 16777217 0 0 0 196611</internalNodes>
          <leafValues>
            -1. -9.3491119332611561e-04</leafValues></_>
        <_>
          <internalNodes>
            0 -1 0 1073495540 -1 -2 -16777218 -1 -1 -1 -196612</internalNodes>
          <leafValues>
            9.3491119332611561e-04 1.</leafValues></_>
        <_>
          <internalNodes>
            0 -1 0 -1073495541 0 1 16777217 0 0 0 196611</internalNodes>
          <leafValues>
            -1. -9.3491119332611561e-04</leafValues></_>
        <_>
          <internalNodes>
            0 -1 0 1073495540 -1 -2 -16777218 -1 -1 -1 -196612</internalNodes>
          <leafValues>
            9.3491119332611561e-04 1.</leafValues></_>
        <_>
          <internalNodes>
            0 -1 0 -1073495541 0 1 16777217 0 0 0 196611</internalNodes>
          <leafValues>
            -1. -9.3491119332611561e-04</leafValues></_>
        <_>
          <internalNodes>
            0 -1 0 1073495540 -1 -2 -16777218 -1 -1 -1 -196612</internalNodes>
          <leafValues>
            9.3491119332611561e-04 1.</leafValues></_>
        <_>
          <internalNodes>
            0 -1 0 -1073495541 0 1 16777217 0 0 0 196611</internalNodes>
          <leafValues>
            -1. -9.3491119332611561e-04</leafValues></_>
        <_>
          <internalNodes>
            0 -1 0 1073495540 -1 -2 -16777218 -1 -1 -1 -196612</internalNodes>
          <leafValues>
            9.3491119332611561e-04 1.</leafValues></_>
        <_>
          <internalNodes>
            0 -1 0 -1073495541 0 1 16777217 0 0 0 196611</internalNodes>
          <leafValues>
            -1. -9.3491119332611561e-04</leafValues></_>
        <_>
          <internalNodes>
            0 -1 0 1073495540 -1 -2 -16777218 -1 -1 -1 -196612</internalNodes>
          <leafValues>
            9.3491119332611561e-04 1.</leafValues></_>
        <_>
          <internalNodes>
            0 -1 0 -1073495541 0 1 16777217 0 0 0 196611</internalNodes>
          <leafValues>
            -1. -9.3491119332611561e-04</leafValues></_>
        <_>
          <internalNodes>
            0 -1 0 1073495540 -1 -2 -16777218 -1 -1 -1 -196612</internalNodes>
          <leafValues>
            9.3491119332611561e-04 1.</leafValues></_></weakClassifiers></_></stages>
  <features>
    <_>
      <rect>
        0 0 8 14</rect></_>
    <_>
      <rect>
        0 0 10 11</rect></_>
    <_>
      <rect>
        0 0 18 11</rect></_>
    <_>
      <rect>
        0 0 18 14</rect></_>
    <_>
      <rect>
        0 0 19 6</rect></_>
    <_>
      <rect>
        0 1 19 5</rect></_>
    <_>
      <rect>
        0 2 6 13</rect></_>
    <_>
      <rect>
        0 2 16 5</rect></_>
    <_>
      <rect>
        0 2 19 13</rect></_>
    <_>
      <rect>
        0 5 17 11</rect></_>
    <_>
      <rect>
        0 8 12 2</rect></_>
    <_>
      <rect>
        0 9 19 7</rect></_>
    <_>
      <rect>
        0 13 9 8</rect></_>
    <_>
      <rect>
        0 14 4 2</rect></_>
    <_>
      <rect>
        0 15 5 3</rect></_>
    <_>
      <rect>
        0 15 17 9</rect></_>
    <_>
      <rect>
        0 21 3 1</rect></_>
    <_>
      <rect>
        0 24 19 6</rect></_>
    <_>
      <rect>
        0 30 15 4</rect></_>
    <_>
      <rect>
        0 36 4 2</rect></_>
    <_>
      <rect>
        0 39 1 1</rect></_>
    <_>
      <rect>
        1 0 9 14</rect></_>
    <_>
      <rect>
        1 0 18 6</rect></_>
    <_>
      <rect>
        1 1 12 4</rect></_>
    <_>
      <rect>
        1 2 8 13</rect></_>
    <_>
      <rect>
        1 4 19 9</rect></_>
    <_>
      <rect>
        1 6 7 3</rect></_>
    <_>
      <rect>
        1 6 15 7</rect></_>
    <_>
      <rect>
        1 8 8 2</rect></_>
    <_>
      <rect>
        1 11 5 5</rect></_>
    <_>
      <rect>
        1 13 17 5</rect></_>
    <_>
      <rect>
        1 23 16 6</rect></_>
    <_>
      <rect>
        1 39 6 1</rect></_>
    <_>
      <rect>
        2 0 3 1</rect></_>
    <_>
      <rect>
        2 0 11 14</rect></_>
    <_>
      <rect>
        2 4 9 5</rect></_>
    <_>
      <rect>
        2 6 17 3</rect></_>
    <_>
      <rect>
        2 11 2 1</rect></_>
    <_>
      <rect>
        2 11 15 5</rect></_>
    <_>
      <rect>
        2 12 6 2</rect></_>
    <_>
      <rect>
        2 18 2 2</rect></_>
    <_>
      <rect>
        2 36 17 2</rect></_>
    <_>
      <rect>
        3 0 9 3</rect></_>
    <_>
      <rect>
        3 0 14 14</rect></_>
    <_>
      <rect>
        3 3 10 4</rect></_>
    <_>
      <rect>
        3 8 6 2</rect></_>
    <_>
      <rect>
        3 10 3 1</rect></_>
    <_>
      <rect>
        3 23 2 1</rect></_>
    <_>
      <rect>
        4 0 3 2</rect></_>
    <_>
      <rect>
        4 0 11 14</rect></_>
    <_>
      <rect>
        4 1 7 11</rect></_>
    <_>
      <rect>
        4 7 18 6</rect></_>
    <_>
      <rect>
        4 10 5 1</rect></_>
    <_>
      <rect>
        4 14 4 2</rect></_>
    <_>
      <rect>
        5 0 2 1</rect></_>
    <_>
      <rect>
        5 29 2 1</rect></_>
    <_>
      <rect>
        5 30 6 4</rect></_>
    <_>
      <rect>
        5 34 17 2</rect></_>
    <_>
      <rect>
        6 3 16 12</rect></_>
    <_>
      <rect>
        6 7 17 8</rect></_>
    <_>
      <rect>
        7 0 2 1</rect></_>
    <_>
      <rect>
        7 0 17 2</rect></_>
    <_>
      <rect>
        7 10 9 6</rect></_>
    <_>
      <rect>
        8 15 7 3</rect></_>
    <_>
      <rect>
        8 15 12 6</rect></_>
    <_>
      <rect>
        9 0 7 2</rect></_>
    <_>
      <rect>
        9 0 8 4</rect></_>
    <_>
      <rect>
        9 5 16 8</rect></_>
    <_>
      <rect>
        9 14 10 4</rect></_>
    <_>
      <rect>
        10 0 10 6</rect></_>
    <_>
      <rect>
        10 0 13 6</rect></_>
    <_>
      <rect>
        10 15 10 2</rect></_>
    <_>
      <rect>
        10 35 2 2</rect></_>
    <_>
      <rect>
        11 18 15 8</rect></_>
    <_>
      <rect>
        11 39 2 1</rect></_>
    <_>
      <rect>
        12 35 8 2</rect></_>
    <_>
      <rect>
        13 0 15 5</rect></_>
    <_>
      <rect>
        13 0 15 14</rect></_>
    <_>
      <rect>
        13 3 15 13</rect></_>
    <_>
      <rect>
        13 6 15 10</rect></_>
    <_>
      <rect>
        14 1 4 2</rect></_>
    <_>
      <rect>
        15 8 4 2</rect></_>
    <_>
      <rect>
        16 0 11 9</rect></_>
    <_>
      <rect>
        16 3 13 12</rect></_>
    <_>
      <rect>
        16 6 14 6</rect></_>
    <_>
      <rect>
        16 21 6 3</rect></_>
    <_>
      <rect>
        16 26 12 5</rect></_>
    <_>
      <rect>
        17 0 2 1</rect></_>
    <_>
      <rect>
        17 35 4 2</rect></_>
    <_>
      <rect>
        18 34 2 1</rect></_>
    <_>
      <rect>
        18 36 13 2</rect></_>
    <_>
      <rect>
        19 0 2 1</rect></_>
    <_>
      <rect>
        19 10 13 6</rect></_>
    <_>
      <rect>
        19 18 12 4</rect></_>
    <_>
      <rect>
        21 0 2 1</rect></_>
    <_>
      <rect>
        21 1 12 2</rect></_>
    <_>
      <rect>
        21 38 8 1</rect></_>
    <_>
      <rect>
        22 35 2 2</rect></_>
    <_>
      <rect>
        23 0 8 14</rect></_>
    <_>
      <rect>
        23 3 5 12</rect></_>
    <_>
      <rect>
        23 19 5 4</rect></_>
    <_>
      <rect>
        24 3 10 12</rect></_>
    <_>
      <rect>
        25 23 11 6</rect></_>
    <_>
      <rect>
        26 0 4 1</rect></_>
    <_>
      <rect>
        26 5 10 3</rect></_>
    <_>
      <rect>
        27 19 3 1</rect></_>
    <_>
      <rect>
        27 27 9 5</rect></_>
    <_>
      <rect>
        27 33 7 3</rect></_>
    <_>
      <rect>
        28 2 10 9</rect></_>
    <_>
      <rect>
        28 3 2 12</rect></_>
    <_>
      <rect>
        28 12 10 5</rect></_>
    <_>
      <rect>
        28 15 10 9</rect></_>
    <_>
      <rect>
        28 35 5 2</rect></_>
    <_>
      <rect>
        28 39 2 1</rect></_>
    <_>
      <rect>
        30 0 7 3</rect></_>
    <_>
      <rect>
        30 36 6 2</rect></_>
    <_>
      <rect>
        31 33 8 3</rect></_>
    <_>
      <rect>
        32 0 2 1</rect></_>
    <_>
      <rect>
        32 1 8 2</rect></_>
    <_>
      <rect>
        32 28 3 1</rect></_>
    <_>
      <rect>
        33 35 3 2</rect></_>
    <_>
      <rect>
        34 20 8 4</rect></_>
    <_>
      <rect>
        35 0 4 9</rect></_>
    <_>
      <rect>
        35 34 5 2</rect></_>
    <_>
      <rect>
        35 35 5 2</rect></_>
    <_>
      <rect>
        36 35 7 2</rect></_>
    <_>
      <rect>
        38 2 4 1</rect></_>
    <_>
      <rect>
        38 20 2 1</rect></_>
    <_>
      <rect>
        39 0 2 1</rect></_>
    <_>
      <rect>
        40 0 6 9</rect></_>
    <_>
      <rect>
        41 8 3 2</rect></_>
    <_>
      <rect>
        43 0 5 13</rect></_>
    <_>
      <rect>
        43 1 5 13</rect></_>
    <_>
      <rect>
        43 36 5 2</rect></_>
    <_>
      <rect>
        44 0 3 9</rect></_>
    <_>
      <rect>
        44 10 4 2</rect></_>
    <_>
      <rect>
        45 2 2 13</rect></_>
    <_>
      <rect>
        45 39 2 1</rect></_>
    <_>
      <rect>
        45 39 3 1</rect></_>
    <_>
      <rect>
        46 16 4 3</rect></_>
    <_>
      <rect>
        46 39 1 1</rect></_>
    <_>
      <rect>
        47 39 2 1</rect></_>
    <_>
      <rect>
        48 39 2 1</rect></_>
    <_>
      <rect>
        49 1 1 1</rect></_>
    <_>
      <rect>
        49 39 3 1</rect></_>
    <_>
      <rect>
        50 2 2 1</rect></_>
    <_>
      <rect>
        50 35 2 1</rect></_>
    <_>
      <rect>
        51 0 2 1</rect></_>
    <_>
      <rect>
        52 0 2 14</rect></_>
    <_>
      <rect>
        52 19 2 1</rect></_>
    <_>
      <rect>
        55 0 1 9</rect></_></features></cascade>
</opencv_storage>
