<?xml version="1.0"?>
<opencv_storage>
<cascade>
  <stageType>BOOST</stageType>
  <featureType>LBP</featureType>
  <height>75</height>
  <width>25</width>
  <stageParams>
    <boostType>GAB</boostType>
    <minHitRate>9.9900001287460327e-01</minHitRate>
    <maxFalseAlarm>5.0000000000000000e-01</maxFalseAlarm>
    <weightTrimRate>9.4999999999999996e-01</weightTrimRate>
    <maxDepth>1</maxDepth>
    <maxWeakCount>100</maxWeakCount></stageParams>
  <featureParams>
    <maxCatCount>256</maxCatCount>
    <featSize>1</featSize></featureParams>
  <stageNum>12</stageNum>
  <stages>
    <!-- stage 0 -->
    <_>
      <maxWeakCount>3</maxWeakCount>
      <stageThreshold>-1.0092569589614868e+00</stageThreshold>
      <weakClassifiers>
        <_>
          <internalNodes>
            0 -1 36 -42861601 -77737029 1073778973 -548567973 33599917
            504651776 268798155 -74457461</internalNodes>
          <leafValues>
            -9.0459966659545898e-01 8.4015595912933350e-01</leafValues></_>
        <_>
          <internalNodes>
            0 -1 32 -78315528 -107968112 -1660487296 -679378151
            -1004350790 -1701781376 -392512853 -1054497</internalNodes>
          <leafValues>
            -9.3496119976043701e-01 7.7098500728607178e-01</leafValues></_>
        <_>
          <internalNodes>
            0 -1 27 -246163457 -216802085 318837973 -11419235 1930472127
            -1170112376 1361055978 -74726774</internalNodes>
          <leafValues>
            -7.9246217012405396e-01 8.3030390739440918e-01</leafValues></_></weakClassifiers></_>
    <!-- stage 1 -->
    <_>
      <maxWeakCount>3</maxWeakCount>
      <stageThreshold>-1.0666488409042358e+00</stageThreshold>
      <weakClassifiers>
        <_>
          <internalNodes>
            0 -1 34 -111152129 -137411297 1627734353 2008486047
            1416755179 1561043081 2101568427 -1049601</internalNodes>
          <leafValues>
            -8.4404456615447998e-01 7.5992256402969360e-01</leafValues></_>
        <_>
          <internalNodes>
            0 -1 21 -5776464 -1060432 -687024656 -12856881 -78448726
            -71595604 -619713797 -849</internalNodes>
          <leafValues>
            -9.4000440835952759e-01 6.6658961772918701e-01</leafValues></_>
        <_>
          <internalNodes>
            0 -1 48 -144704545 -581998577 -493772401 -3157637 5520010
            1057689779 419474175 -2081</internalNodes>
          <leafValues>
            -8.3651775121688843e-01 7.1740013360977173e-01</leafValues></_></weakClassifiers></_>
    <!-- stage 2 -->
    <_>
      <maxWeakCount>3</maxWeakCount>
      <stageThreshold>-1.1675026416778564e+00</stageThreshold>
      <weakClassifiers>
        <_>
          <internalNodes>
            0 -1 12 1157748223 1393558995 1363231197 1566791135
            -1437996037 -122976001 26161663 -3146757</internalNodes>
          <leafValues>
            -8.0786025524139404e-01 6.8720376491546631e-01</leafValues></_>
        <_>
          <internalNodes>
            0 -1 39 -269487617 -878759817 277947477 -272674787
            1377000431 2055465707 1667584383 -1051649</internalNodes>
          <leafValues>
            -8.8120687007904053e-01 5.5282217264175415e-01</leafValues></_>
        <_>
          <internalNodes>
            0 -1 25 -608045096 -16655936 629262833 -7613560 -1413889558
            -75292020 -108295781 -7612664</internalNodes>
          <leafValues>
            -8.8191998004913330e-01 5.2156448364257812e-01</leafValues></_></weakClassifiers></_>
    <!-- stage 3 -->
    <_>
      <maxWeakCount>5</maxWeakCount>
      <stageThreshold>-1.1282424926757812e+00</stageThreshold>
      <weakClassifiers>
        <_>
          <internalNodes>
            0 -1 40 -262145 -205262499 1352177843 -103889953 2031139775
            2066078153 288734175 -1048577</internalNodes>
          <leafValues>
            -7.9432624578475952e-01 6.4925372600555420e-01</leafValues></_>
        <_>
          <internalNodes>
            0 -1 24 -14811744 522037557 -34486865 -1987055185 -243008530
            -67178303 -134742034 -262913</internalNodes>
          <leafValues>
            -9.0287929773330688e-01 4.6795800328254700e-01</leafValues></_>
        <_>
          <internalNodes>
            0 -1 17 -740303361 -653732647 1595234653 1467374171
            -83895317 -275213487 1079603963 -538968321</internalNodes>
          <leafValues>
            -7.4985665082931519e-01 6.1444401741027832e-01</leafValues></_>
        <_>
          <internalNodes>
            0 -1 28 -1624780297 1669329317 1679298655 2139083743
            1849359359 1573033442 2067790783 -1048917</internalNodes>
          <leafValues>
            -6.9485747814178467e-01 6.8453115224838257e-01</leafValues></_>
        <_>
          <internalNodes>
            0 -1 41 -222560769 -804018684 4194320 -527958015 1660945696
            -98868728 1360024308 -1329</internalNodes>
          <leafValues>
            -7.1398395299911499e-01 6.4937651157379150e-01</leafValues></_></weakClassifiers></_>
    <!-- stage 4 -->
    <_>
      <maxWeakCount>5</maxWeakCount>
      <stageThreshold>-1.1221984624862671e+00</stageThreshold>
      <weakClassifiers>
        <_>
          <internalNodes>
            0 -1 20 1393522175 2113884287 353719637 -837901 1465907135
            -642698305 2049631231 -33622390</internalNodes>
          <leafValues>
            -8.0039137601852417e-01 5.2461796998977661e-01</leafValues></_>
        <_>
          <internalNodes>
            0 -1 18 1432158174 423221533 -1878264402 831488427
            1087962058 316527839 -384777778 -100804373</internalNodes>
          <leafValues>
            -7.7782195806503296e-01 5.3147548437118530e-01</leafValues></_>
        <_>
          <internalNodes>
            0 -1 15 -33562637 -70089259 1343817813 1504920882 -75260981
            -58686035 285870216 -2106921</internalNodes>
          <leafValues>
            -7.6252090930938721e-01 5.3674024343490601e-01</leafValues></_>
        <_>
          <internalNodes>
            0 -1 31 -415695715 1895027039 537478432 982734195 1493823451
            438476937 -357844801 -30228226</internalNodes>
          <leafValues>
            -6.8419975042343140e-01 6.0933566093444824e-01</leafValues></_>
        <_>
          <internalNodes>
            0 -1 2 -2062952483 -737041455 1159538959 1567815355
            -572606209 -123038773 1357521641 -168100693</internalNodes>
          <leafValues>
            -6.9006091356277466e-01 6.1726051568984985e-01</leafValues></_></weakClassifiers></_>
    <!-- stage 5 -->
    <_>
      <maxWeakCount>5</maxWeakCount>
      <stageThreshold>-8.2453823089599609e-01</stageThreshold>
      <weakClassifiers>
        <_>
          <internalNodes>
            0 -1 29 1568014303 1061158835 -273748049 -1347420225
            2147483630 -1 -1048657 -2101249</internalNodes>
          <leafValues>
            -6.1568021774291992e-01 6.6852056980133057e-01</leafValues></_>
        <_>
          <internalNodes>
            0 -1 53 -11863073 -540069417 268781599 -187967285 1342232283
            2097450148 1997734095 -1064773</internalNodes>
          <leafValues>
            -6.5959697961807251e-01 6.2322020530700684e-01</leafValues></_>
        <_>
          <internalNodes>
            0 -1 23 -136054019 -615831552 461702144 -1893480 -254364961
            1107493120 -70567009 -67688421</internalNodes>
          <leafValues>
            -7.7237248420715332e-01 5.5835658311843872e-01</leafValues></_>
        <_>
          <internalNodes>
            0 -1 27 828604367 -146724815 1359046141 -539632193
            2063706863 -486324038 934434127 -537924877</internalNodes>
          <leafValues>
            -7.3035824298858643e-01 5.4087889194488525e-01</leafValues></_>
        <_>
          <internalNodes>
            0 -1 51 -204426760 1477087312 26 286326787 -1843354434
            -1736343392 -123502133 -1961887077</internalNodes>
          <leafValues>
            -6.0058462619781494e-01 6.8282109498977661e-01</leafValues></_></weakClassifiers></_>
    <!-- stage 6 -->
    <_>
      <maxWeakCount>5</maxWeakCount>
      <stageThreshold>-1.3481061458587646e+00</stageThreshold>
      <weakClassifiers>
        <_>
          <internalNodes>
            0 -1 38 -5769249 -347991804 1644642645 -337152235 503535483
            405914115 1867141975 -5242945</internalNodes>
          <leafValues>
            -7.5320827960968018e-01 4.7430497407913208e-01</leafValues></_>
        <_>
          <internalNodes>
            0 -1 10 -50004482 1059845341 314573022 -1078011670 -74667860
            -1650622001 -401692481 -6567697</internalNodes>
          <leafValues>
            -7.5485825538635254e-01 5.1501280069351196e-01</leafValues></_>
        <_>
          <internalNodes>
            0 -1 45 -1053217 1878127123 -1081408145 -29142573 1700265919
            1891085212 1705931167 -21237253</internalNodes>
          <leafValues>
            -7.3858785629272461e-01 4.4714835286140442e-01</leafValues></_>
        <_>
          <internalNodes>
            0 -1 9 1631846384 290190804 -1004470328 -773333862
            -467605064 -1735894400 -254738453 -914185525</internalNodes>
          <leafValues>
            -8.6625099182128906e-01 4.3592196702957153e-01</leafValues></_>
        <_>
          <internalNodes>
            0 -1 50 -715877650 -775929726 66217 -537952045 -662132546
            -654012280 16785835 -15781717</internalNodes>
          <leafValues>
            -6.3400191068649292e-01 5.7906311750411987e-01</leafValues></_></weakClassifiers></_>
    <!-- stage 7 -->
    <_>
      <maxWeakCount>6</maxWeakCount>
      <stageThreshold>-1.8289912939071655e+00</stageThreshold>
      <weakClassifiers>
        <_>
          <internalNodes>
            0 -1 16 2098263548 1057862619 -1929061987 -1122635313
            -44267366 -303202136 -492119861 -269490161</internalNodes>
          <leafValues>
            -7.8616350889205933e-01 4.4141250848770142e-01</leafValues></_>
        <_>
          <internalNodes>
            0 -1 8 -6554690 -96132864 1551892480 -34612293 -114166071
            -114944000 -548953157 -68164757</internalNodes>
          <leafValues>
            -6.7927640676498413e-01 4.9479788541793823e-01</leafValues></_>
        <_>
          <internalNodes>
            0 -1 13 2136661495 -548584993 756304685 1260080315
            -1902388481 -99741565 488242431 -536896533</internalNodes>
          <leafValues>
            -6.3071191310882568e-01 5.5567842721939087e-01</leafValues></_>
        <_>
          <internalNodes>
            0 -1 47 2047835071 159547810 223024581 -116764220 1735355311
            1787339565 584790295 -68427061</internalNodes>
          <leafValues>
            -7.8481042385101318e-01 4.5808863639831543e-01</leafValues></_>
        <_>
          <internalNodes>
            0 -1 26 -786956840 -12160 -888810339 -2624055 -2138617718
            -888176502 -1870088965 -10563328</internalNodes>
          <leafValues>
            -7.4787372350692749e-01 4.5607170462608337e-01</leafValues></_>
        <_>
          <internalNodes>
            0 -1 54 -788500248 -594438016 1331217 1372917914 -930970930
            -1744697343 33589962 -74735457</internalNodes>
          <leafValues>
            -6.1712872982025146e-01 5.9294790029525757e-01</leafValues></_></weakClassifiers></_>
    <!-- stage 8 -->
    <_>
      <maxWeakCount>7</maxWeakCount>
      <stageThreshold>-1.1791821718215942e+00</stageThreshold>
      <weakClassifiers>
        <_>
          <internalNodes>
            0 -1 46 -2099201 -46688873 -921861815 -1190924151 540060330
            989958261 -1324621681 -30409809</internalNodes>
          <leafValues>
            -7.5000000000000000e-01 3.9715188741683960e-01</leafValues></_>
        <_>
          <internalNodes>
            0 -1 19 1448429022 490729725 -1428036658 697279473
            1908494540 1644216481 -488509458 -369104237</internalNodes>
          <leafValues>
            -7.7081865072250366e-01 3.7798106670379639e-01</leafValues></_>
        <_>
          <internalNodes>
            0 -1 57 -169872886 1897803818 -938065402 1397875059
            890423437 269060137 -358908437 -67514373</internalNodes>
          <leafValues>
            -6.3882720470428467e-01 5.3635960817337036e-01</leafValues></_>
        <_>
          <internalNodes>
            0 -1 0 -739121667 -1048735233 321049333 -2049702241
            -1562188565 -91110800 -1042430231 96486853</internalNodes>
          <leafValues>
            -6.5106672048568726e-01 5.4668766260147095e-01</leafValues></_>
        <_>
          <internalNodes>
            0 -1 54 -744955670 -788510488 352387416 1401421852
            -1505441137 -285081472 302156187 -608461317</internalNodes>
          <leafValues>
            -6.0219228267669678e-01 5.7279002666473389e-01</leafValues></_>
        <_>
          <internalNodes>
            0 -1 35 -52429825 587284512 272961904 1627456005 -1414927848
            1409319969 -615183430 -36706147</internalNodes>
          <leafValues>
            -6.3094258308410645e-01 5.3363972902297974e-01</leafValues></_>
        <_>
          <internalNodes>
            0 -1 22 392393983 2141155456 1076000038 -55975025 1394142911
            -580958689 -349376086 -359816561</internalNodes>
          <leafValues>
            -6.3265568017959595e-01 5.6062567234039307e-01</leafValues></_></weakClassifiers></_>
    <!-- stage 9 -->
    <_>
      <maxWeakCount>6</maxWeakCount>
      <stageThreshold>-8.1329661607742310e-01</stageThreshold>
      <weakClassifiers>
        <_>
          <internalNodes>
            0 -1 33 -477171745 -1554226879 -2012655087 -89492667
            -2036938275 -1727747054 -493988787 -287706373</internalNodes>
          <leafValues>
            -6.7619049549102783e-01 4.4347825646400452e-01</leafValues></_>
        <_>
          <internalNodes>
            0 -1 14 -371328040 -639639396 -611330055 -572523606 96961215
            -1461058943 -1297501765 -72513280</internalNodes>
          <leafValues>
            -7.5474566221237183e-01 4.1016671061515808e-01</leafValues></_>
        <_>
          <internalNodes>
            0 -1 55 -185936708 -78033232 -1333749672 -83046391
            1393702074 2134917156 588394746 -14978626</internalNodes>
          <leafValues>
            -6.8188387155532837e-01 4.4526481628417969e-01</leafValues></_>
        <_>
          <internalNodes>
            0 -1 42 -36853761 -722281341 -2013265873 -2027421695
            -1068430184 1561402401 807505806 -83115281</internalNodes>
          <leafValues>
            -6.8271207809448242e-01 4.8370268940925598e-01</leafValues></_>
        <_>
          <internalNodes>
            0 -1 5 -183311655 -632291183 353478109 -201190605
            -1869953026 -1178400767 1439301784 -180376533</internalNodes>
          <leafValues>
            -7.0946139097213745e-01 4.5149388909339905e-01</leafValues></_>
        <_>
          <internalNodes>
            0 -1 6 -237074449 1396736497 -260447745 -1966831158
            1300873387 1385234602 1912699613 162268876</internalNodes>
          <leafValues>
            -7.2003293037414551e-01 4.6240371465682983e-01</leafValues></_></weakClassifiers></_>
    <!-- stage 10 -->
    <_>
      <maxWeakCount>7</maxWeakCount>
      <stageThreshold>-9.1490268707275391e-01</stageThreshold>
      <weakClassifiers>
        <_>
          <internalNodes>
            0 -1 43 -45614081 2078256911 455820877 -1146403745
            1091167803 2049613864 1714417387 -1150358609</internalNodes>
          <leafValues>
            -6.4940965175628662e-01 4.6860781311988831e-01</leafValues></_>
        <_>
          <internalNodes>
            0 -1 3 583935983 885689230 -104162945 -1381334894 1962475455
            -175728493 1205337783 -7161173</internalNodes>
          <leafValues>
            -6.8580055236816406e-01 4.5872923731803894e-01</leafValues></_>
        <_>
          <internalNodes>
            0 -1 7 1892939742 873525721 -1811877850 1032450339 972345822
            812834968 -251798577 2077802974</internalNodes>
          <leafValues>
            -6.8399286270141602e-01 4.3137225508689880e-01</leafValues></_>
        <_>
          <internalNodes>
            0 -1 49 1582414846 -937197561 1363218589 -2092953389
            1821409530 -88243576 340068554 -49362040</internalNodes>
          <leafValues>
            -5.5504602193832397e-01 5.6982421875000000e-01</leafValues></_>
        <_>
          <internalNodes>
            0 -1 4 -1290628624 -774863605 -1282464915 -572564067
            -1467023618 -284352357 2133543240 -405042517</internalNodes>
          <leafValues>
            -6.4074611663818359e-01 4.7884932160377502e-01</leafValues></_>
        <_>
          <internalNodes>
            0 -1 52 -25693165 -537561110 -538968713 1431699084
            2113917066 -10946818 -136592894 -1303912242</internalNodes>
          <leafValues>
            -5.5129402875900269e-01 6.2095475196838379e-01</leafValues></_>
        <_>
          <internalNodes>
            0 -1 56 -204737622 -1857886582 -37956807 -780928815
            -1006386550 -1055784931 1140963267 -614993253</internalNodes>
          <leafValues>
            -5.0159144401550293e-01 6.7448496818542480e-01</leafValues></_></weakClassifiers></_>
    <!-- stage 11 -->
    <_>
      <maxWeakCount>5</maxWeakCount>
      <stageThreshold>-9.6719473600387573e-01</stageThreshold>
      <weakClassifiers>
        <_>
          <internalNodes>
            0 -1 11 -549199905 -1234477633 391502747 1246194131 -24833
            -1646771733 1932484351 -70255637</internalNodes>
          <leafValues>
            -6.3419115543365479e-01 4.4064748287200928e-01</leafValues></_>
        <_>
          <internalNodes>
            0 -1 1 -280307718 791664727 -128548395 733975445 2068902172
            2062225649 -302999841 -101465589</internalNodes>
          <leafValues>
            -8.0894523859024048e-01 3.6669129133224487e-01</leafValues></_>
        <_>
          <internalNodes>
            0 -1 44 2055012191 901111958 -1065303846 -1718025549
            -260994552 -1044002547 -984876774 -12408581</internalNodes>
          <leafValues>
            -5.8924299478530884e-01 4.8229053616523743e-01</leafValues></_>
        <_>
          <internalNodes>
            0 -1 37 -908468816 -845199969 996113689 -1617983279
            -1966499918 -1148583800 -1081549126 -1976675702</internalNodes>
          <leafValues>
            -5.6242376565933228e-01 5.3405016660690308e-01</leafValues></_>
        <_>
          <internalNodes>
            0 -1 30 -545785989 1978996213 1565859888 -570474761
            1773616056 1442674173 -1082148162 -16897</internalNodes>
          <leafValues>
            -5.1876378059387207e-01 5.9148979187011719e-01</leafValues></_></weakClassifiers></_></stages>
  <features>
    <_>
      <rect>
        0 7 7 9</rect></_>
    <_>
      <rect>
        0 30 4 3</rect></_>
    <_>
      <rect>
        1 32 8 4</rect></_>
    <_>
      <rect>
        1 33 2 2</rect></_>
    <_>
      <rect>
        1 33 8 2</rect></_>
    <_>
      <rect>
        1 34 7 2</rect></_>
    <_>
      <rect>
        2 12 7 7</rect></_>
    <_>
      <rect>
        2 26 5 3</rect></_>
    <_>
      <rect>
        2 26 5 11</rect></_>
    <_>
      <rect>
        2 28 6 5</rect></_>
    <_>
      <rect>
        2 31 3 3</rect></_>
    <_>
      <rect>
        2 31 7 6</rect></_>
    <_>
      <rect>
        2 32 7 4</rect></_>
    <_>
      <rect>
        2 32 7 6</rect></_>
    <_>
      <rect>
        2 33 4 3</rect></_>
    <_>
      <rect>
        2 34 6 4</rect></_>
    <_>
      <rect>
        3 30 3 3</rect></_>
    <_>
      <rect>
        3 33 6 4</rect></_>
    <_>
      <rect>
        4 27 4 3</rect></_>
    <_>
      <rect>
        4 28 3 3</rect></_>
    <_>
      <rect>
        4 28 6 6</rect></_>
    <_>
      <rect>
        4 29 5 4</rect></_>
    <_>
      <rect>
        4 29 6 5</rect></_>
    <_>
      <rect>
        4 30 4 7</rect></_>
    <_>
      <rect>
        4 31 4 2</rect></_>
    <_>
      <rect>
        4 32 3 3</rect></_>
    <_>
      <rect>
        4 32 3 4</rect></_>
    <_>
      <rect>
        4 32 6 3</rect></_>
    <_>
      <rect>
        5 24 6 8</rect></_>
    <_>
      <rect>
        5 28 3 3</rect></_>
    <_>
      <rect>
        6 24 4 14</rect></_>
    <_>
      <rect>
        6 24 6 9</rect></_>
    <_>
      <rect>
        6 30 3 3</rect></_>
    <_>
      <rect>
        7 27 3 7</rect></_>
    <_>
      <rect>
        7 27 5 7</rect></_>
    <_>
      <rect>
        7 28 3 11</rect></_>
    <_>
      <rect>
        7 30 5 7</rect></_>
    <_>
      <rect>
        7 34 2 1</rect></_>
    <_>
      <rect>
        8 26 3 8</rect></_>
    <_>
      <rect>
        8 28 4 6</rect></_>
    <_>
      <rect>
        8 30 5 7</rect></_>
    <_>
      <rect>
        8 32 4 8</rect></_>
    <_>
      <rect>
        8 32 5 8</rect></_>
    <_>
      <rect>
        9 24 5 9</rect></_>
    <_>
      <rect>
        9 27 2 3</rect></_>
    <_>
      <rect>
        9 29 4 5</rect></_>
    <_>
      <rect>
        9 32 5 6</rect></_>
    <_>
      <rect>
        10 28 3 6</rect></_>
    <_>
      <rect>
        10 33 3 5</rect></_>
    <_>
      <rect>
        10 35 2 1</rect></_>
    <_>
      <rect>
        10 36 2 1</rect></_>
    <_>
      <rect>
        10 37 1 1</rect></_>
    <_>
      <rect>
        11 28 1 6</rect></_>
    <_>
      <rect>
        11 34 2 2</rect></_>
    <_>
      <rect>
        11 38 1 1</rect></_>
    <_>
      <rect>
        12 35 1 1</rect></_>
    <_>
      <rect>
        12 36 1 2</rect></_>
    <_>
      <rect>
        19 34 2 2</rect></_></features></cascade>
</opencv_storage>
