<?xml version="1.0"?>
<opencv_storage>
<cascade>
  <stageType>BOOST</stageType>
  <featureType>HAAR</featureType>
  <height>60</height>
  <width>60</width>
  <stageParams>
    <boostType>GAB</boostType>
    <minHitRate>9.9900001287460327e-01</minHitRate>
    <maxFalseAlarm>5.0000000000000000e-01</maxFalseAlarm>
    <weightTrimRate>9.4999999999999996e-01</weightTrimRate>
    <maxDepth>1</maxDepth>
    <maxWeakCount>100</maxWeakCount></stageParams>
  <featureParams>
    <maxCatCount>0</maxCatCount>
    <featSize>1</featSize>
    <mode>ALL</mode></featureParams>
  <stageNum>5</stageNum>
  <stages>
    <!-- stage 0 -->
    <_>
      <maxWeakCount>2</maxWeakCount>
      <stageThreshold>-1.1809131503105164e-01</stageThreshold>
      <weakClassifiers>
        <_>
          <internalNodes>
            0 -1 2 -1.2490209192037582e-02</internalNodes>
          <leafValues>
            8.1668192148208618e-01 -9.6463656425476074e-01</leafValues></_>
        <_>
          <internalNodes>
            0 -1 14 -1.0272652143612504e-03</internalNodes>
          <leafValues>
            8.4654521942138672e-01 -7.0890349149703979e-01</leafValues></_></weakClassifiers></_>
    <!-- stage 1 -->
    <_>
      <maxWeakCount>4</maxWeakCount>
      <stageThreshold>-9.0626931190490723e-01</stageThreshold>
      <weakClassifiers>
        <_>
          <internalNodes>
            0 -1 16 -7.7878020238131285e-04</internalNodes>
          <leafValues>
            8.6895811557769775e-01 -6.1136025190353394e-01</leafValues></_>
        <_>
          <internalNodes>
            0 -1 8 -3.6680058110505342e-03</internalNodes>
          <leafValues>
            7.9283618927001953e-01 -5.6152760982513428e-01</leafValues></_>
        <_>
          <internalNodes>
            0 -1 6 -1.1154771782457829e-03</internalNodes>
          <leafValues>
            8.3735346794128418e-01 -5.2046197652816772e-01</leafValues></_>
        <_>
          <internalNodes>
            0 -1 23 2.6654535904526711e-03</internalNodes>
          <leafValues>
            -5.0718444585800171e-01 7.8708052635192871e-01</leafValues></_></weakClassifiers></_>
    <!-- stage 2 -->
    <_>
      <maxWeakCount>6</maxWeakCount>
      <stageThreshold>-1.1950869560241699e+00</stageThreshold>
      <weakClassifiers>
        <_>
          <internalNodes>
            0 -1 9 2.5947708636522293e-03</internalNodes>
          <leafValues>
            -4.4866386055946350e-01 8.0877387523651123e-01</leafValues></_>
        <_>
          <internalNodes>
            0 -1 13 9.0726697817444801e-03</internalNodes>
          <leafValues>
            -8.5778981447219849e-01 5.0515437126159668e-01</leafValues></_>
        <_>
          <internalNodes>
            0 -1 20 5.0201604608446360e-04</internalNodes>
          <leafValues>
            -4.5988667011260986e-01 5.4481971263885498e-01</leafValues></_>
        <_>
          <internalNodes>
            0 -1 3 -9.5525495707988739e-03</internalNodes>
          <leafValues>
            3.3030596375465393e-01 -8.2365131378173828e-01</leafValues></_>
        <_>
          <internalNodes>
            0 -1 7 -2.2449556272476912e-03</internalNodes>
          <leafValues>
            7.2159594297409058e-01 -3.8293310999870300e-01</leafValues></_>
        <_>
          <internalNodes>
            0 -1 6 -1.8460206920281053e-03</internalNodes>
          <leafValues>
            5.7795608043670654e-01 -4.8064857721328735e-01</leafValues></_></weakClassifiers></_>
    <!-- stage 3 -->
    <_>
      <maxWeakCount>7</maxWeakCount>
      <stageThreshold>-1.5669509172439575e+00</stageThreshold>
      <weakClassifiers>
        <_>
          <internalNodes>
            0 -1 12 -3.0836537480354309e-03</internalNodes>
          <leafValues>
            7.5450450181961060e-01 -3.7921348214149475e-01</leafValues></_>
        <_>
          <internalNodes>
            0 -1 5 -2.2841915488243103e-03</internalNodes>
          <leafValues>
            6.5981239080429077e-01 -4.0327617526054382e-01</leafValues></_>
        <_>
          <internalNodes>
            0 -1 11 2.0327586680650711e-03</internalNodes>
          <leafValues>
            3.8516604900360107e-01 -8.2378882169723511e-01</leafValues></_>
        <_>
          <internalNodes>
            0 -1 24 8.4214180242270231e-04</internalNodes>
          <leafValues>
            -3.2485237717628479e-01 8.5363769531250000e-01</leafValues></_>
        <_>
          <internalNodes>
            0 -1 4 -4.7676172107458115e-03</internalNodes>
          <leafValues>
            2.9419407248497009e-01 -8.4776997566223145e-01</leafValues></_>
        <_>
          <internalNodes>
            0 -1 15 -1.5401258133351803e-03</internalNodes>
          <leafValues>
            4.8068532347679138e-01 -4.7003111243247986e-01</leafValues></_>
        <_>
          <internalNodes>
            0 -1 17 -7.3932620580308139e-05</internalNodes>
          <leafValues>
            -6.3847303390502930e-01 3.6859336495399475e-01</leafValues></_></weakClassifiers></_>
    <!-- stage 4 -->
    <_>
      <maxWeakCount>8</maxWeakCount>
      <stageThreshold>-9.9225813150405884e-01</stageThreshold>
      <weakClassifiers>
        <_>
          <internalNodes>
            0 -1 19 -7.7582773519679904e-04</internalNodes>
          <leafValues>
            7.1830987930297852e-01 -3.8847857713699341e-01</leafValues></_>
        <_>
          <internalNodes>
            0 -1 1 3.6459541879594326e-03</internalNodes>
          <leafValues>
            -3.1428295373916626e-01 7.8265124559402466e-01</leafValues></_>
        <_>
          <internalNodes>
            0 -1 10 4.5607716310769320e-04</internalNodes>
          <leafValues>
            3.4359639883041382e-01 -7.9937094449996948e-01</leafValues></_>
        <_>
          <internalNodes>
            0 -1 18 -1.2782677076756954e-03</internalNodes>
          <leafValues>
            6.5691494941711426e-01 -3.6481422185897827e-01</leafValues></_>
        <_>
          <internalNodes>
            0 -1 22 1.0478894691914320e-03</internalNodes>
          <leafValues>
            -3.0197823047637939e-01 7.7546501159667969e-01</leafValues></_>
        <_>
          <internalNodes>
            0 -1 21 -7.1969156851992011e-04</internalNodes>
          <leafValues>
            -9.2352658510208130e-01 3.0302739143371582e-01</leafValues></_>
        <_>
          <internalNodes>
            0 -1 25 2.5296518579125404e-03</internalNodes>
          <leafValues>
            -3.3759680390357971e-01 7.0639944076538086e-01</leafValues></_>
        <_>
          <internalNodes>
            0 -1 0 3.2519549131393433e-02</internalNodes>
          <leafValues>
            2.8700554370880127e-01 -8.2341998815536499e-01</leafValues></_></weakClassifiers></_></stages>
  <features>
    <_>
      <rects>
        <_>
          19 11 20 38 -1.</_>
        <_>
          29 11 10 38 2.</_></rects>
      <tilted>0</tilted></_>
    <_>
      <rects>
        <_>
          20 25 8 7 -1.</_>
        <_>
          22 25 4 7 2.</_></rects>
      <tilted>0</tilted></_>
    <_>
      <rects>
        <_>
          21 25 18 20 -1.</_>
        <_>
          21 35 18 10 2.</_></rects>
      <tilted>0</tilted></_>
    <_>
      <rects>
        <_>
          22 21 10 22 -1.</_>
        <_>
          22 32 10 11 2.</_></rects>
      <tilted>0</tilted></_>
    <_>
      <rects>
        <_>
          22 31 15 12 -1.</_>
        <_>
          22 37 15 6 2.</_></rects>
      <tilted>0</tilted></_>
    <_>
      <rects>
        <_>
          24 27 6 5 -1.</_>
        <_>
          26 27 2 5 3.</_></rects>
      <tilted>0</tilted></_>
    <_>
      <rects>
        <_>
          24 28 6 4 -1.</_>
        <_>
          26 28 2 4 3.</_></rects>
      <tilted>0</tilted></_>
    <_>
      <rects>
        <_>
          26 28 6 5 -1.</_>
        <_>
          28 28 2 5 3.</_></rects>
      <tilted>0</tilted></_>
    <_>
      <rects>
        <_>
          27 8 10 16 -1.</_>
        <_>
          27 12 10 8 2.</_></rects>
      <tilted>0</tilted></_>
    <_>
      <rects>
        <_>
          27 28 8 4 -1.</_>
        <_>
          29 28 4 4 2.</_></rects>
      <tilted>0</tilted></_>
    <_>
      <rects>
        <_>
          27 40 9 3 -1.</_>
        <_>
          30 41 3 1 9.</_></rects>
      <tilted>0</tilted></_>
    <_>
      <rects>
        <_>
          28 11 20 10 -1.</_>
        <_>
          28 11 10 10 2.</_></rects>
      <tilted>1</tilted></_>
    <_>
      <rects>
        <_>
          30 28 9 3 -1.</_>
        <_>
          33 28 3 3 3.</_></rects>
      <tilted>0</tilted></_>
    <_>
      <rects>
        <_>
          31 15 8 28 -1.</_>
        <_>
          31 22 8 14 2.</_></rects>
      <tilted>0</tilted></_>
    <_>
      <rects>
        <_>
          31 28 6 3 -1.</_>
        <_>
          33 28 2 3 3.</_></rects>
      <tilted>0</tilted></_>
    <_>
      <rects>
        <_>
          31 30 6 3 -1.</_>
        <_>
          33 30 2 3 3.</_></rects>
      <tilted>0</tilted></_>
    <_>
      <rects>
        <_>
          32 29 6 3 -1.</_>
        <_>
          34 29 2 3 3.</_></rects>
      <tilted>0</tilted></_>
    <_>
      <rects>
        <_>
          33 14 4 1 -1.</_>
        <_>
          34 15 2 1 2.</_></rects>
      <tilted>1</tilted></_>
    <_>
      <rects>
        <_>
          33 28 6 3 -1.</_>
        <_>
          35 28 2 3 3.</_></rects>
      <tilted>0</tilted></_>
    <_>
      <rects>
        <_>
          34 22 1 15 -1.</_>
        <_>
          34 27 1 5 3.</_></rects>
      <tilted>0</tilted></_>
    <_>
      <rects>
        <_>
          34 30 8 1 -1.</_>
        <_>
          36 30 4 1 2.</_></rects>
      <tilted>0</tilted></_>
    <_>
      <rects>
        <_>
          35 21 4 14 -1.</_>
        <_>
          35 21 4 7 2.</_></rects>
      <tilted>1</tilted></_>
    <_>
      <rects>
        <_>
          35 29 3 3 -1.</_>
        <_>
          36 29 1 3 3.</_></rects>
      <tilted>0</tilted></_>
    <_>
      <rects>
        <_>
          37 28 6 8 -1.</_>
        <_>
          39 30 2 8 3.</_></rects>
      <tilted>1</tilted></_>
    <_>
      <rects>
        <_>
          38 30 3 1 -1.</_>
        <_>
          39 31 1 1 3.</_></rects>
      <tilted>1</tilted></_>
    <_>
      <rects>
        <_>
          39 28 4 8 -1.</_>
        <_>
          40 29 2 8 2.</_></rects>
      <tilted>1</tilted></_></features></cascade>
</opencv_storage>
